/*
 * Copyright (c) 2025 EdgeImpulse Inc.
 *
 * Generated by Edge Impulse and licensed under the applicable Edge Impulse
 * Terms of Service. Community and Professional Terms of Service
 * (https://edgeimpulse.com/legal/terms-of-service) or Enterprise Terms of
 * Service (https://edgeimpulse.com/legal/enterprise-terms-of-service),
 * according to your product plan subscription (the “License”).
 *
 * This software, documentation and other associated files (collectively referred
 * to as the “Software”) is a single SDK variation generated by the Edge Impulse
 * platform and requires an active paid Edge Impulse subscription to use this
 * Software for any purpose.
 *
 * You may NOT use this Software unless you have an active Edge Impulse subscription
 * that meets the eligibility requirements for the applicable License, subject to
 * your full and continued compliance with the terms and conditions of the License,
 * including without limitation any usage restrictions under the applicable License.
 *
 * If you do not have an active Edge Impulse product plan subscription, or if use
 * of this Software exceeds the usage limitations of your Edge Impulse product plan
 * subscription, you are not permitted to use this Software and must immediately
 * delete and erase all copies of this Software within your control or possession.
 * Edge Impulse reserves all rights and remedies available to enforce its rights.
 *
 * Unless required by applicable law or agreed to in writing, the Software is
 * distributed on an "AS IS" BASIS, WITHOUT WARRANTIES OR CONDITIONS OF ANY KIND,
 * either express or implied. See the License for the specific language governing
 * permissions, disclaimers and limitations under the License.
 */
// Generated on: 24.12.2025 06:12:24

#include <stdio.h>
#include <stdlib.h>
#include "edge-impulse-sdk/tensorflow/lite/c/builtin_op_data.h"
#include "edge-impulse-sdk/tensorflow/lite/c/common.h"
#include "edge-impulse-sdk/tensorflow/lite/micro/micro_mutable_op_resolver.h"
#include "edge-impulse-sdk/porting/ei_classifier_porting.h"

#if EI_CLASSIFIER_PRINT_STATE
#if defined(__cplusplus) && EI_C_LINKAGE == 1
extern "C" {
    extern void ei_printf(const char *format, ...);
}
#else
extern void ei_printf(const char *format, ...);
#endif
#endif

#define STRINGIZE(x) #x
#define STRINGIZE_VALUE_OF(x) STRINGIZE(x)

#if defined (__GNUC__)  /* GNU compiler */
#define ALIGN(X) __attribute__((aligned(X)))
#define DEFINE_SECTION(x) __attribute__((section(x)))
#elif defined (_MSC_VER)
#define ALIGN(X) __declspec(align(X))
#elif defined (__TASKING__) /* TASKING Compiler */
#define ALIGN(X) __align(X)
#define DEFINE_SECTION(x) __attribute__((section(x)))
#elif defined (__ARMCC_VERSION) /* Arm Compiler */
#define ALIGN(X) __ALIGNED(x)
#define DEFINE_SECTION(x) __attribute__((section(x)))
#elif defined (__ICCARM__) /* IAR Compiler */
#define ALIGN(x) __attribute__((aligned(x)))
#define DEFINE_SECTION(x) __attribute__((section(x)))
#elif defined (__clang__) /* LLVM/Clang Compiler */
#define ALIGN(X) __ALIGNED(x)
#define DEFINE_SECTION(x) __attribute__((section(x)))
#endif

#if defined(EI_MODEL_SECTION) && (defined(__GNUC__) || defined(__clang__))
#define MODEL_SECTION(X) __attribute__((section(STRINGIZE_VALUE_OF(X))))
#else
#define MODEL_SECTION(X)
#endif

#ifndef EI_MAX_SCRATCH_BUFFER_COUNT
#ifndef CONFIG_IDF_TARGET_ESP32S3
#define EI_MAX_SCRATCH_BUFFER_COUNT 14
#else
#define EI_MAX_SCRATCH_BUFFER_COUNT 28
#endif // CONFIG_IDF_TARGET_ESP32S3
#endif // EI_MAX_SCRATCH_BUFFER_COUNT

#ifndef EI_MAX_OVERFLOW_BUFFER_COUNT
#define EI_MAX_OVERFLOW_BUFFER_COUNT 10
#endif // EI_MAX_OVERFLOW_BUFFER_COUNT

using namespace tflite;
using namespace tflite::ops;
using namespace tflite::ops::micro;

namespace {

#if defined(EI_CLASSIFIER_ALLOCATION_STATIC_HIMAX) || defined(EI_CLASSIFIER_ALLOCATION_STATIC_HIMAX_GNU)
constexpr int kTensorArenaSize = 242656;
#else
constexpr int kTensorArenaSize = 241632;
#endif

#if defined(EI_CLASSIFIER_ALLOCATION_STATIC)
#if defined (EI_TENSOR_ARENA_LOCATION)
uint8_t tensor_arena[kTensorArenaSize] ALIGN(16) DEFINE_SECTION(STRINGIZE_VALUE_OF(EI_TENSOR_ARENA_LOCATION));
#else
uint8_t tensor_arena[kTensorArenaSize] ALIGN(16);
#endif
#elif defined(EI_CLASSIFIER_ALLOCATION_STATIC_HIMAX)
#pragma Bss(".tensor_arena")
uint8_t tensor_arena[kTensorArenaSize] ALIGN(16);
#pragma Bss()
#elif defined(EI_CLASSIFIER_ALLOCATION_STATIC_HIMAX_GNU)
uint8_t tensor_arena[kTensorArenaSize] ALIGN(16) __attribute__((section(".tensor_arena")));
#else
#define EI_CLASSIFIER_ALLOCATION_HEAP 1
uint8_t* tensor_arena = NULL;
#endif

static uint8_t* tensor_boundary;
static uint8_t* current_location;

template <int SZ, class T> struct TfArray {
  int sz; T elem[SZ];
};

enum used_operators_e {
  OP_CONV_2D, OP_DEPTHWISE_CONV_2D, OP_PAD, OP_ADD, OP_SOFTMAX,  OP_LAST
};

struct TensorInfo_t { // subset of TfLiteTensor used for initialization from constant memory
  TfLiteAllocationType allocation_type;
  TfLiteType type;
  void* data;
  TfLiteIntArray* dims;
  size_t bytes;
  TfLiteQuantization quantization;
};

typedef struct {
  TfLiteTensor tensor;
  int16_t index;
} TfLiteTensorWithIndex;

typedef struct {
  TfLiteEvalTensor tensor;
  int16_t index;
} TfLiteEvalTensorWithIndex;

TfLiteContext ctx{};
static const int MAX_TFL_TENSOR_COUNT = 4;
static TfLiteTensorWithIndex tflTensors[MAX_TFL_TENSOR_COUNT];
static const int MAX_TFL_EVAL_COUNT = 4;
static TfLiteEvalTensorWithIndex tflEvalTensors[MAX_TFL_EVAL_COUNT];
TfLiteRegistration registrations[OP_LAST];

namespace g0 {
const TfArray<4, int> tensor_dimension0 = { 4, { 1,96,96,3 } };
const TfArray<1, float> quant0_scale = { 1, { 0.0039215688593685627, } };
const TfArray<1, int> quant0_zero = { 1, { -128 } };
const TfLiteAffineQuantization quant0 = { (TfLiteFloatArray*)&quant0_scale, (TfLiteIntArray*)&quant0_zero, 0 };
const MODEL_SECTION(EI_MODEL_SECTION) ALIGN(16) int32_t tensor_data1[4*2] = { 
  0, 0, 
  0, 1, 
  0, 1, 
  0, 0, 
};
const TfArray<2, int> tensor_dimension1 = { 2, { 4,2 } };
const MODEL_SECTION(EI_MODEL_SECTION) ALIGN(16) int32_t tensor_data2[4] = { 21561, -44160, -38952, -26822, };
const TfArray<1, int> tensor_dimension2 = { 1, { 4 } };
const TfArray<4, float> quant2_scale = { 4, { 0.00024004651641007513, 0.00020045095880050212, 0.00022753230587113649, 0.00019071169663220644, } };
const TfArray<4, int> quant2_zero = { 4, { 0,0,0,0 } };
const TfLiteAffineQuantization quant2 = { (TfLiteFloatArray*)&quant2_scale, (TfLiteIntArray*)&quant2_zero, 0 };
const MODEL_SECTION(EI_MODEL_SECTION) ALIGN(16) int8_t tensor_data3[4*1*1*32] = { 
  /* [0][0][][] */ -49,-30,-62,-30,127,-51,7,-31,120,16,100,25,-86,-37,-9,-22,8,-28,-91,19,-17,74,-47,89,13,36,25,-22,68,-52,33,-20, 
  /* [1][0][][] */ 71,63,-100,-37,-82,34,98,39,-35,-96,-81,-16,98,-57,42,-107,112,-91,20,-50,14,-71,-94,-15,-3,-82,63,-86,-33,-127,-28,-27, 
  /* [2][0][][] */ -42,103,15,66,-39,6,87,32,-97,-94,68,-62,-94,73,-127,52,46,39,73,-53,-18,7,-22,-29,22,-88,77,-81,-34,25,52,62, 
  /* [3][0][][] */ 101,-92,83,8,-35,113,45,-6,-18,-100,32,117,75,-3,-115,-27,110,-123,111,1,-127,-30,-7,-81,90,-7,-101,108,-96,117,38,65, 
};
const TfArray<4, int> tensor_dimension3 = { 4, { 4,1,1,32 } };
const TfArray<4, float> quant3_scale = { 4, { 0.0040018646977841854, 0.0033417590893805027, 0.0037932377308607101, 0.0031793937087059021, } };
const TfLiteAffineQuantization quant3 = { (TfLiteFloatArray*)&quant3_scale, (TfLiteIntArray*)&g0::quant2_zero, 0 };
const MODEL_SECTION(EI_MODEL_SECTION) ALIGN(16) int32_t tensor_data4[32] = { -39, 199, -296, -438, 1083, -137, -686, -927, 1203, -117, -552, -117, -33, -682, -503, -292, -568, 716, -481, -585, 292, 1005, -249, 1304, -442, 1147, 158, 4, 820, -317, -421, -501, };
const TfArray<1, int> tensor_dimension4 = { 1, { 32 } };
const TfArray<32, float> quant4_scale = { 32, { 6.4338571974076331e-05, 4.7979094233596697e-05, 4.1228697227779776e-05, 4.3202457163715735e-05, 5.252181290416047e-05, 4.76806380902417e-05, 4.6844495955156162e-05, 4.6658351493533701e-05, 6.5661697590257972e-05, 5.044545468990691e-05, 4.4484761019703001e-05, 4.8289257392752916e-05, 4.4478136260295287e-05, 4.9170397687703371e-05, 6.7231347202323377e-05, 4.9641850637272e-05, 4.2974868847522885e-05, 5.3796404245076701e-05, 4.2964293243130669e-05, 4.1965133277699351e-05, 5.0701903091976419e-05, 5.6102471717167646e-05, 4.8116013203980401e-05, 7.4408570071682334e-05, 4.3389783968450502e-05, 5.1687675295397639e-05, 4.9850812501972541e-05, 5.1187878852942958e-05, 5.1627277571242303e-05, 4.2182840843452141e-05, 4.5087435864843428e-05, 5.0850481784436852e-05, } };
const TfArray<32, int> quant4_zero = { 32, { 0,0,0,0,0,0,0,0,0,0,0,0,0,0,0,0,0,0,0,0,0,0,0,0,0,0,0,0,0,0,0,0 } };
const TfLiteAffineQuantization quant4 = { (TfLiteFloatArray*)&quant4_scale, (TfLiteIntArray*)&quant4_zero, 0 };
const MODEL_SECTION(EI_MODEL_SECTION) ALIGN(16) int8_t tensor_data5[32*1*1*96] = { 
  /* [0][0][][] */ -28,-47,67,30,63,3,-57,-48,35,-79,-74,-19,39,13,-20,-2,-36,-33,-78,-44,-43,-67,-1,75,-127,21,35,-30,86,-28,-15,-89,58,-41,-48,37,-72,-57,-39,18,45,-62,-70,61,36,-80,70,-7,10,-41,-11,61,-67,-50,-51,85,19,20,91,-99,-44,58,-48,12,-18,-2,51,74,9,55,61,-81,88,-72,34,54,-83,8,-36,11,25,9,103,-7,-48,-45,-66,49,38,84,9,-109,-9,43,44,4, 
  /* [1][0][][] */ -36,31,-64,5,-48,70,38,14,86,-105,-94,103,62,-20,21,73,114,-32,51,86,-27,1,43,26,31,2,-36,91,9,19,102,-90,49,95,-17,35,62,57,-20,-52,-51,5,-9,-83,-39,33,-23,-37,-25,-73,100,51,33,84,-84,-56,49,127,62,94,-49,106,-47,-67,-59,31,75,43,112,41,22,30,-100,70,-50,46,83,-29,-34,80,-64,92,-52,-110,33,115,-41,-63,83,70,74,-24,93,109,26,12, 
  /* [2][0][][] */ 58,35,-73,96,3,-99,87,106,-107,94,-37,109,70,-23,83,-115,-81,-36,61,74,-113,-27,100,15,-18,97,105,-2,-68,82,80,115,-69,-19,-118,-121,-119,104,123,-19,-122,-81,7,-9,-81,127,-25,-83,101,61,99,-82,-43,63,32,24,-75,87,-64,-7,-22,35,-38,68,91,54,38,103,-67,54,-19,-94,20,-71,19,17,-53,-56,3,-1,44,-110,20,-33,2,-105,-30,-24,94,123,-9,33,-48,-74,-16,-78, 
  /* [3][0][][] */ 63,-13,32,-22,-69,44,-116,34,47,18,59,-22,72,95,62,2,96,88,-56,20,108,-94,-74,-119,-29,-111,-90,101,39,-91,78,13,-69,-39,-18,-27,-99,-36,38,47,-36,-105,-109,-6,61,25,-57,-95,58,-100,35,1,93,26,81,-104,-122,-127,-114,-64,-91,21,-39,71,56,-32,-68,-32,-27,-84,-5,85,9,-103,39,-55,38,88,94,-79,-89,-125,39,95,25,31,-50,-110,-84,45,-5,-98,96,-103,-82,29, 
  /* [4][0][][] */ 25,85,29,44,-72,19,52,-2,34,62,7,78,40,-15,13,-60,24,3,-22,-31,90,-39,117,53,-26,6,62,33,-38,-1,-64,-66,55,96,56,-80,68,-9,-127,28,-41,-58,-57,-56,27,69,28,51,24,-62,-64,-58,-65,34,-75,8,26,-94,2,34,-3,-15,-30,-36,-30,42,34,-42,-21,-79,-55,-84,-25,-3,98,87,55,71,13,-47,-7,-43,-117,-43,4,66,78,-19,-110,-50,1,-22,19,70,-104,-21, 
  /* [5][0][][] */ 89,-83,65,73,50,-127,21,54,92,-92,-1,-63,16,83,31,32,35,52,-95,100,22,40,4,-28,-87,-47,-17,-91,51,17,10,-76,-23,2,-70,9,-125,-31,50,21,-79,-45,30,85,-24,23,33,-48,-95,108,22,34,13,9,42,-15,83,19,-23,-56,28,-67,21,-70,-33,95,-31,28,66,-12,61,-75,-46,73,-31,-74,5,-62,9,67,96,29,65,103,-74,65,-13,39,61,-86,119,98,-26,5,86,-80, 
  /* [6][0][][] */ 37,-50,76,73,-73,-68,-14,79,-4,-75,-3,-78,86,38,93,-101,32,-7,14,96,-67,-124,86,41,-50,-71,-14,-71,-25,-106,60,-58,-76,-104,-67,-93,-31,44,-82,80,80,47,29,-20,-106,109,-77,-41,-84,39,-8,-50,68,-43,90,-20,20,10,-53,102,-89,-31,64,-65,-51,70,77,-38,99,5,-111,-6,29,-69,-98,-56,-68,-127,-61,-38,42,-41,49,0,-58,-78,-34,-70,87,89,79,32,-43,-38,92,-12, 
  /* [7][0][][] */ 120,48,-78,-51,-41,93,-36,-1,117,-13,-116,13,54,-89,5,78,48,13,11,92,62,13,-19,54,-77,69,28,27,-70,116,-5,0,22,17,33,91,-121,72,-18,-23,80,-83,79,36,12,-6,87,-107,37,-43,-88,-64,-6,85,-7,6,127,-50,23,-45,14,-20,76,-104,-78,-61,46,26,-75,25,63,93,73,-10,45,29,-51,25,-106,40,93,-35,-4,-59,79,27,-89,91,89,-8,78,71,-40,-14,14,-44, 
  /* [8][0][][] */ -9,36,36,-46,-7,45,-26,-17,-1,20,56,70,0,-13,-19,-55,-35,70,-39,-27,20,12,78,106,-77,64,42,97,-38,-28,-71,79,66,-19,65,5,127,-3,-16,39,55,80,-72,-49,13,-25,-16,76,30,-67,-60,-14,-49,-11,-9,-63,20,47,-78,69,75,57,20,75,-18,-28,11,59,-85,31,31,-6,67,43,21,61,-40,120,75,56,12,65,-86,-72,16,30,45,-39,14,-20,-49,26,-60,-89,-55,29, 
  /* [9][0][][] */ 4,-9,94,53,26,-72,-35,-104,48,21,-13,45,-8,-58,-93,-19,9,7,-53,-68,-3,89,-92,-91,90,-22,-7,28,-9,-41,-74,74,45,5,32,-31,-78,10,-45,-35,34,-63,50,-105,60,8,-97,44,41,1,-93,-45,89,-55,-70,83,79,-37,3,5,-74,103,67,-46,-86,-5,98,52,-22,93,127,-82,21,61,-70,-77,-60,-100,-27,97,30,10,71,18,-40,-86,35,-25,81,32,-19,70,92,9,41,-21, 
  /* [10][0][][] */ -67,69,78,-75,-23,101,92,22,31,28,12,-76,86,66,-39,0,-50,64,-100,-64,-32,12,37,-77,27,47,-127,-123,-59,70,-103,-78,78,86,108,61,-58,0,-34,24,-42,100,-122,-46,-97,-63,-10,-67,-10,-8,25,8,49,11,-66,-38,-107,-37,21,-61,-11,60,101,32,105,-78,-111,-34,27,-34,-112,-78,61,62,-90,89,-21,43,52,8,72,-13,45,95,-105,55,80,-27,21,4,-21,-66,-61,-52,-43,-79, 
  /* [11][0][][] */ 93,-10,-14,95,84,42,50,27,93,60,-72,79,-28,-84,26,-78,-49,-111,31,33,23,67,15,-98,-113,-66,-35,61,70,-43,9,-47,-76,-68,49,19,-60,67,-23,-51,-30,75,-83,-1,-39,-70,-85,-80,70,93,56,36,-103,-93,16,31,-78,-68,-70,-91,-92,73,82,8,30,65,-51,29,87,28,-94,-79,7,97,-70,39,-81,26,-40,63,-104,-52,-43,-59,35,-84,8,-48,-85,-1,10,-127,-96,-26,-40,-54, 
  /* [12][0][][] */ 8,66,-55,-7,107,23,-32,33,-83,72,-11,18,-27,14,49,-77,-102,-27,-74,-60,33,-12,9,96,-57,-36,96,-100,110,13,-46,127,-77,-69,-22,9,-15,-70,-8,40,113,43,-115,-40,-13,-80,-35,115,-39,-97,-73,112,8,-10,-62,89,-20,-75,97,47,67,126,-12,43,112,37,-47,110,43,82,58,80,96,118,2,-14,-30,27,-110,-98,-58,96,86,18,-37,25,43,118,-82,-99,118,66,87,-32,38,70, 
  /* [13][0][][] */ 127,-67,47,89,89,55,58,58,75,-98,-11,-29,66,56,44,-43,-110,-67,-83,13,64,-40,85,-53,-64,-14,2,-19,-99,-50,85,23,23,88,-37,24,-114,-21,11,62,-56,59,-43,-12,-47,22,-2,-25,15,61,2,-85,-85,31,59,-69,-15,39,-42,-62,-28,83,-86,7,-97,-61,-95,74,-9,-4,75,-2,-119,19,-78,-65,-127,23,60,-60,58,-97,93,19,-67,-79,80,100,0,-54,-104,44,109,-19,65,-1, 
  /* [14][0][][] */ -46,-59,55,35,43,-32,-23,-84,-64,-13,33,48,-24,21,-66,-47,-42,-45,37,13,-29,10,-8,26,-79,-51,-31,30,-77,-75,-57,19,82,-28,-32,24,66,58,21,-86,-18,-76,13,47,38,-88,29,-67,88,22,39,19,108,-19,-20,4,9,49,34,127,16,-52,-24,107,-71,-23,37,-79,-66,-62,-3,56,24,47,26,-46,29,-74,24,26,16,-13,-81,-18,-87,-68,-18,53,60,-9,59,-20,95,55,-27,37, 
  /* [15][0][][] */ 38,-16,-28,73,59,-81,46,-78,59,-20,-69,6,81,-6,-72,-102,69,0,-127,8,31,10,55,88,70,41,32,64,-3,30,72,-92,0,13,-66,9,-64,103,78,-52,14,89,-39,-26,31,-69,-35,-70,-14,-92,2,17,-86,-75,-56,1,54,43,-57,94,-54,-67,-2,92,-44,80,-69,13,-33,13,33,-82,-8,-13,42,-102,-21,36,87,78,-63,33,-99,-54,-97,-27,-81,21,68,63,-118,-52,43,110,-88,103, 
  /* [16][0][][] */ -63,-11,83,-59,49,93,-61,42,51,46,-111,66,-9,-56,-58,-62,79,75,58,76,109,65,-63,42,-30,59,-74,35,-95,-3,32,28,-100,75,44,46,-73,55,-43,-68,22,-47,65,79,66,104,104,-16,-63,-84,3,116,-58,111,77,48,27,78,95,-13,119,86,23,38,49,21,-51,94,53,89,-57,-12,19,92,47,64,-14,64,-115,-28,16,-94,87,19,8,87,91,19,82,15,-4,127,63,-29,-57,21, 
  /* [17][0][][] */ 46,-78,58,86,-53,-77,-34,-76,54,-80,77,69,73,58,-80,54,51,50,117,61,-73,12,38,-26,21,41,-36,66,84,-14,-1,49,-22,-10,27,14,10,83,-91,-3,-74,-24,7,-3,7,11,66,-81,70,80,-30,21,17,76,62,-73,-81,92,-88,-58,18,-57,73,101,-65,-57,57,-64,-60,25,85,18,10,-113,-48,93,113,-4,53,-29,22,-15,-78,-68,-71,79,83,-31,17,68,-94,-127,-1,118,0,31, 
  /* [18][0][][] */ -103,89,97,-79,-16,-110,-112,-3,-14,64,-117,-56,-46,23,51,-67,11,-34,50,-28,90,-56,10,-89,21,-104,-27,100,20,31,-9,36,34,-38,-111,-116,-43,25,-41,55,-50,-12,-59,-19,-123,6,16,-13,7,-27,62,24,-116,-17,-4,77,-51,25,-25,-127,73,99,5,26,-75,-127,-42,80,63,-86,-80,97,-108,-45,-98,-114,47,44,-11,-86,-64,-17,-37,-75,91,-44,59,60,-118,-81,-72,101,77,-61,45,-28, 
  /* [19][0][][] */ 11,25,80,32,61,-89,87,85,85,-70,21,-22,-98,22,-66,55,66,-115,114,54,-33,72,-64,1,76,-86,19,-67,-97,-124,-80,41,82,-92,27,-7,8,-81,-62,-112,35,-127,-91,1,-93,19,68,-105,-35,39,-46,32,-38,8,0,-18,13,88,-4,-34,44,-55,95,64,-73,-13,-36,-10,-17,50,71,-61,-69,-123,-57,-84,-30,-115,4,112,47,-117,-43,67,-99,-20,0,-13,79,19,-5,65,-40,110,58,-47, 
  /* [20][0][][] */ -20,57,69,81,-82,127,28,38,12,0,-70,17,14,79,38,-61,-14,-14,-52,-31,36,-21,-46,-50,58,-70,-70,69,33,28,-33,85,97,38,5,47,66,-30,-32,-94,-69,-26,-71,-85,-25,-60,-59,92,59,-112,-102,37,56,95,41,-7,98,86,115,94,98,-4,-60,7,-23,-59,-25,4,-80,-52,-1,82,-30,-81,56,30,103,98,101,101,70,9,54,-29,52,100,1,58,23,80,22,40,28,34,-26,30, 
  /* [21][0][][] */ 101,88,93,-68,64,-50,66,49,5,-43,-38,42,-10,28,1,-60,-65,-33,52,-38,68,-24,79,-44,78,-63,-11,89,5,8,29,-17,1,24,-77,-55,127,91,-70,-12,1,5,33,32,-40,-48,-60,81,-8,-47,-36,69,42,56,-82,24,-55,26,-86,113,17,-71,29,-3,50,38,-18,-55,-51,6,20,39,-2,-10,40,90,-88,-1,59,101,31,72,-6,-46,50,-43,57,-66,-95,74,57,-126,-35,-33,34,-36, 
  /* [22][0][][] */ 16,-43,-52,-86,93,-26,93,41,-101,99,-78,-83,127,-93,-105,-90,32,66,-90,-39,90,-72,24,34,74,-17,-113,87,-45,-28,-72,-100,37,43,39,14,11,-28,-60,-125,-9,-13,-5,85,34,-109,68,-29,-70,-82,61,0,-58,-92,-54,23,3,-32,-13,-33,118,-66,-69,-99,-48,8,-109,-57,88,86,-1,-1,-45,7,67,-76,71,-40,52,111,82,-71,-47,-114,60,72,79,-27,-48,27,-60,65,36,12,-18,81, 
  /* [23][0][][] */ 35,-26,32,36,33,-48,21,-66,21,-35,71,58,6,-38,33,-24,82,-11,-71,25,60,-22,103,10,-6,-17,58,44,26,14,42,-38,-27,34,36,42,127,-4,-84,-8,-55,9,7,-28,-33,-61,70,18,51,-104,-94,-36,41,-32,-34,45,-70,-26,33,49,-61,-33,-32,1,16,21,-47,-85,-6,-12,78,-39,-1,-32,-13,-20,22,57,68,97,-46,-18,-32,-80,61,27,74,-33,-78,23,36,-55,62,-58,-67,42, 
  /* [24][0][][] */ -84,-58,-113,-77,-97,-127,-80,-100,58,106,72,36,105,51,-49,-124,-92,33,17,-60,85,-90,-65,-49,43,-37,63,47,95,39,-5,-69,-6,-1,34,20,-63,-93,54,-29,-83,-109,92,-4,13,-46,35,62,-95,-56,-31,1,60,48,59,-82,-16,68,19,-9,80,-15,24,85,-115,87,-57,-96,-112,42,-67,-37,-48,35,82,91,50,-85,-114,-90,-88,-104,-73,-123,-7,54,-23,-110,16,-116,-8,-80,-29,18,-102,21, 
  /* [25][0][][] */ -76,-18,29,43,127,-27,-71,68,46,-75,-3,17,54,19,-65,0,-45,59,61,-113,53,95,22,-40,71,-51,-71,73,62,-106,46,93,87,-66,79,80,120,-51,-10,-3,-71,91,-78,26,125,34,48,43,-59,96,-73,-11,49,0,-73,44,-15,41,-86,83,99,53,41,71,1,57,6,19,-80,5,-13,-103,36,-66,72,57,41,102,31,35,40,58,-51,62,-51,-34,-75,-99,-28,-21,86,17,-94,-25,-4,-38, 
  /* [26][0][][] */ 54,-93,-16,-9,-101,5,-5,-13,-85,-111,93,85,-60,-36,11,-4,118,33,-47,-67,29,69,100,16,42,47,15,42,16,13,-68,-14,-24,-51,-85,-73,-33,75,-54,96,-80,91,59,32,-65,63,-31,95,-15,34,-4,81,35,-32,-11,-95,103,91,49,43,6,-67,68,-10,101,-17,-40,52,-57,85,86,106,74,-88,-70,13,46,-73,-80,25,-19,74,54,-67,75,13,-21,11,-61,96,1,-5,-35,127,38,95, 
  /* [27][0][][] */ -4,-1,-47,-75,-102,-68,-50,-9,24,78,34,-105,-35,55,77,-38,53,-16,22,-50,-86,14,-28,-13,-100,67,-94,13,65,5,-36,-10,56,61,-56,-80,-73,-49,-86,80,-78,9,19,13,89,21,58,92,76,57,59,-59,-99,-72,15,-10,57,-43,-79,-74,-41,-50,-26,42,60,-37,-88,99,40,-4,-118,-5,62,-38,1,-74,40,-58,81,72,70,-22,127,-53,-63,-78,-37,25,-31,10,-8,-40,47,-11,96,35, 
  /* [28][0][][] */ 91,23,96,37,-102,-42,-70,-67,-25,-94,61,106,-22,-58,16,95,111,113,5,57,-18,37,-56,-57,-71,58,-47,-12,-83,-32,19,-17,-78,22,86,91,83,-85,-50,26,92,47,-57,57,-79,-4,18,43,34,-83,-87,-48,-43,29,41,39,27,5,62,69,-8,-22,-64,21,40,55,-2,65,-85,54,-60,-29,62,42,-3,-50,-95,-3,-61,69,-64,-53,22,-22,60,-65,69,-82,-114,-57,-45,-82,-26,34,-127,-35, 
  /* [29][0][][] */ 63,48,50,-48,-71,-10,-119,16,103,-5,-88,-96,94,-108,-47,-44,-120,99,53,-46,-85,-41,40,5,-27,23,-42,-34,-93,-3,105,17,53,6,-89,-66,-39,111,4,107,52,110,-47,81,8,114,-51,-24,14,19,71,-79,84,-101,127,56,-90,44,-46,98,-118,75,-96,-55,-62,-53,47,105,127,-94,13,-88,101,85,48,17,124,-90,-28,21,4,-94,29,-66,69,114,37,92,-31,109,89,107,-105,32,34,56, 
  /* [30][0][][] */ 17,-75,-67,42,-109,21,-68,-17,109,-28,-11,-55,-96,18,47,7,-12,22,88,-108,28,-103,-117,5,-125,10,-94,103,-13,-105,-102,-9,-86,-74,-127,-60,9,-26,-10,16,75,-82,-22,83,91,-53,87,55,-65,70,28,-103,88,-56,-17,89,-74,-57,-85,-60,-100,-3,-77,-27,-114,-94,-96,83,-61,92,45,-31,-73,90,32,-87,-59,-77,-76,-55,20,26,-78,-33,-111,14,-102,90,-31,-116,69,48,-43,-11,14,-79, 
  /* [31][0][][] */ 99,-77,18,94,5,26,-59,-73,-5,-39,-72,-77,79,-112,-48,91,-75,-81,-6,22,53,15,-43,83,30,-127,34,20,-71,-90,53,110,10,26,-109,-4,51,-22,-50,-82,52,-49,-12,22,8,-37,-31,10,50,12,101,-27,-69,-39,-79,29,-82,58,-13,81,-43,-11,60,-67,18,101,-49,-59,61,-81,-109,16,-110,-35,-5,-1,-68,-74,39,81,-52,-89,49,80,53,88,-80,24,28,-38,-80,-29,-3,105,-19,12, 
};
const TfArray<4, int> tensor_dimension5 = { 4, { 32,1,1,96 } };
const TfArray<32, float> quant5_scale = { 32, { 0.0027343893889337778, 0.0020391114521771669, 0.0017522196285426617, 0.001836104434914887, 0.0022321769502013922, 0.0020264270715415478, 0.0019908910617232323, 0.0019829799421131611, 0.0027906221803277731, 0.002143931807950139, 0.0018906022887676954, 0.0020522933918982744, 0.0018903207965195179, 0.0020897418726235628, 0.0028573321178555489, 0.0021097785793244839, 0.0018264319514855742, 0.0022863470949232578, 0.0018259823555126786, 0.0017835181206464767, 0.0021548308432102203, 0.0023843550588935614, 0.0020449305884540081, 0.0031623642425984144, 0.0018440658459439874, 0.002196726156398654, 0.0021186594385653734, 0.0021754847839474678, 0.0021941591985523701, 0.0017927706940099597, 0.0019162159878760576, 0.0021611454430967569, } };
const TfLiteAffineQuantization quant5 = { (TfLiteFloatArray*)&quant5_scale, (TfLiteIntArray*)&g0::quant4_zero, 0 };
const MODEL_SECTION(EI_MODEL_SECTION) ALIGN(16) int32_t tensor_data6[96] = { -1749, 3329, 6470, 1711, -2223, -2671, 15281, 1841, 2077, -1032, 9047, -44, -7840, 1826, 13658, 3803, 9065, 4719, -4397, -4927, 4786, 22176, 16122, 13416, 1052, 659, 3933, 2539, 2249, -3737, 4746, -2239, -194, 3508, 170, 1050, 7330, 4457, -1320, 3213, 6255, 4740, 4133, 10505, 3386, 3587, 1385, 7121, 3736, -4415, -4601, 276, -201, -1064, 1485, -29, 162, -609, -3613, 9069, -593, 1003, -1543, -1280, -2096, 5350, 13192, 1167, -2331, 638, 1199, 1540, 1011, -833, 330, 7243, -330, 11613, 12606, -548, 5603, 1320, -283, 902, 13679, 7042, 3069, 857, 3923, 2757, -349, -6520, 521, -1350, -1171, -1604, };
const TfArray<1, int> tensor_dimension6 = { 1, { 96 } };
const TfArray<96, float> quant6_scale = { 96, { 0.00035907127312384546, 0.00047037142212502658, 0.00036939766141586006, 0.00050892954459413886, 0.00046279054367914796, 0.00056134950136765838, 0.00021769099112134427, 0.00037371707730926573, 0.00029246593476273119, 0.00064478098647668958, 0.00022322172299027443, 0.00040898009319789708, 0.00033014596556313336, 0.0015471277292817831, 0.00022466131485998631, 0.00030809047166258097, 0.00020874029723927379, 0.00030678190523758531, 0.00044143310515210032, 0.00034950417466461658, 0.00013245502486824989, 0.00012086350761819631, 0.00019126341794617474, 0.00012381821579765528, 0.00020491401664912701, 0.00071339169517159462, 0.00076183641795068979, 0.00043745402945205569, 0.00025885083596222103, 0.00052307621808722615, 0.00030545945628546178, 0.00034618790959939361, 0.00027966356719844043, 0.00032867281697690487, 0.00031637339270673692, 0.00022308492043521255, 0.00026857433840632439, 0.00023406722175423056, 0.00047455300227738917, 0.00054862850811332464, 0.00019955763127654791, 0.00055084034102037549, 0.00034302665153518319, 0.00021894213568884879, 0.00054598564747720957, 0.00027697280165739357, 0.00036287630791775882, 0.00030850013718008995, 0.00036686996463686228, 0.00029926642309874296, 0.0003342028649058193, 0.0002817360800690949, 0.00070403760764747858, 0.00032351328991353512, 0.00050180760445073247, 0.00061031617224216461, 0.00062411173712462187, 0.00043808060581795871, 0.00042362188105471432, 0.00021151163673494011, 0.0012670252472162247, 0.00058197049656882882, 0.0002574084501247853, 0.00059921352658420801, 0.00087337015429511666, 0.00035767222288995981, 0.00016244687139987946, 0.00032991421176120639, 0.00049808016046881676, 0.00048279276234097779, 0.00040569336852058768, 0.00033500496647320688, 0.0013244778383523226, 0.00049901375314220786, 0.0004687474574893713, 0.0003001627919729799, 0.00038262971793301404, 0.00016569375293329358, 0.00014678345178253949, 0.00027607707306742668, 0.00025766220642253757, 0.00026274292031303048, 0.00032957896473817527, 0.00023244736075866967, 0.00013405941717792302, 0.00033740172511897981, 0.00077524693915620446, 0.00031133939046412706, 0.00016842628247104585, 0.00073816202348098159, 0.00030222354689612985, 0.00029397051548585296, 0.00040570023702457547, 0.00075483729597181082, 0.0005705704097636044, 0.00024843608844093978, } };
const TfArray<96, int> quant6_zero = { 96, { 0,0,0,0,0,0,0,0,0,0,0,0,0,0,0,0,0,0,0,0,0,0,0,0,0,0,0,0,0,0,0,0,0,0,0,0,0,0,0,0,0,0,0,0,0,0,0,0,0,0,0,0,0,0,0,0,0,0,0,0,0,0,0,0,0,0,0,0,0,0,0,0,0,0,0,0,0,0,0,0,0,0,0,0,0,0,0,0,0,0,0,0,0,0,0,0 } };
const TfLiteAffineQuantization quant6 = { (TfLiteFloatArray*)&quant6_scale, (TfLiteIntArray*)&quant6_zero, 0 };
const MODEL_SECTION(EI_MODEL_SECTION) ALIGN(16) int8_t tensor_data7[96*1*1*16] = { 
  /* [0][0][][] */ -40,122,34,-127,-57,-46,-35,-72,-43,32,-9,89,42,-43,-25,66, 
  /* [1][0][][] */ -55,-3,-74,5,-6,-9,11,-75,64,44,-29,5,-8,-18,15,-127, 
  /* [2][0][][] */ 23,1,-15,48,24,28,-60,-55,103,-14,-10,11,-2,127,-83,54, 
  /* [3][0][][] */ 61,-53,26,-109,-32,-30,-5,-2,109,14,56,89,18,64,29,127, 
  /* [4][0][][] */ -94,35,7,38,22,12,9,22,9,36,35,-35,-127,0,-10,23, 
  /* [5][0][][] */ 3,39,88,16,13,69,-48,76,-48,61,-31,-33,42,-27,-127,23, 
  /* [6][0][][] */ 28,-30,127,-104,25,-10,-28,93,-74,-86,48,-15,9,82,-21,49, 
  /* [7][0][][] */ 26,122,-9,-62,110,12,2,-57,127,96,-32,-5,38,-26,67,62, 
  /* [8][0][][] */ 9,-74,24,-98,31,-43,21,-85,16,65,87,-16,21,127,73,76, 
  /* [9][0][][] */ -1,-47,3,123,35,-26,38,-55,-77,127,39,-41,-16,-51,-2,5, 
  /* [10][0][][] */ -26,14,-78,-127,-7,13,-5,48,55,-46,53,-3,-38,-55,-26,21, 
  /* [11][0][][] */ 14,6,31,-19,73,-15,74,-54,-76,22,11,41,14,127,-70,-36, 
  /* [12][0][][] */ 36,-23,-85,16,42,-68,49,19,41,89,-77,-27,-40,127,-20,26, 
  /* [13][0][][] */ -14,-3,-27,26,4,-127,-5,32,4,-19,1,7,8,-10,-2,7, 
  /* [14][0][][] */ 37,2,117,-31,111,-11,-127,-112,-46,-80,12,-2,4,-107,-30,-64, 
  /* [15][0][][] */ -48,40,-24,-35,-5,-17,127,56,-20,34,66,8,16,79,83,-8, 
  /* [16][0][][] */ -7,70,101,89,-21,8,118,72,-93,36,-51,25,-3,0,25,-127, 
  /* [17][0][][] */ -52,-121,-18,30,-72,-2,-67,11,-127,-32,24,-53,-8,41,58,-40, 
  /* [18][0][][] */ 8,98,33,67,52,-3,60,-22,79,69,-53,-101,27,127,86,16, 
  /* [19][0][][] */ 0,-4,68,37,104,15,-92,-43,-76,-96,-30,-127,-27,-5,-20,-58, 
  /* [20][0][][] */ 44,-123,-91,5,-23,-127,34,58,-49,107,-118,35,-30,1,-18,-60, 
  /* [21][0][][] */ 22,-50,66,-10,-3,9,-25,84,-13,-88,61,53,-20,127,48,56, 
  /* [22][0][][] */ -49,72,-25,125,-52,19,127,30,-3,57,-1,48,12,-22,16,-16, 
  /* [23][0][][] */ 81,-18,87,-113,91,-37,-12,46,0,30,-16,-42,-6,-30,-127,42, 
  /* [24][0][][] */ -118,55,17,-25,5,127,23,-21,-3,7,122,0,-75,22,78,-26, 
  /* [25][0][][] */ 23,35,28,23,3,5,59,-37,-10,-127,-19,-18,-1,-22,16,15, 
  /* [26][0][][] */ -50,-4,-20,-8,-46,-8,-41,-52,-127,-29,15,-35,-11,114,-48,78, 
  /* [27][0][][] */ 2,23,15,75,23,-32,-10,-26,53,13,-17,14,16,127,-11,4, 
  /* [28][0][][] */ 37,56,57,97,127,-4,40,51,-98,-17,-68,-7,9,101,28,-56, 
  /* [29][0][][] */ -13,-15,7,21,41,-10,2,41,-32,-13,-4,-127,-8,-10,-18,10, 
  /* [30][0][][] */ -26,87,-40,66,-32,-24,41,-127,-41,57,-16,-12,55,29,72,82, 
  /* [31][0][][] */ -59,-58,-37,-66,0,16,-67,-114,30,85,2,-127,-62,-22,-20,25, 
  /* [32][0][][] */ -127,-84,-13,74,39,32,1,14,-1,-28,-104,52,77,8,52,74, 
  /* [33][0][][] */ -7,-49,-17,-2,-117,-10,-74,7,58,34,27,-24,43,-120,127,22, 
  /* [34][0][][] */ 24,-13,62,32,35,28,-53,93,-90,-50,92,22,-12,7,-25,127, 
  /* [35][0][][] */ -23,28,-97,29,-23,-23,45,-117,111,99,-74,50,-1,1,81,-127, 
  /* [36][0][][] */ 2,28,35,127,5,45,106,26,7,-1,-10,56,9,3,-89,-73, 
  /* [37][0][][] */ -29,31,88,-109,-3,-29,-16,-96,-88,19,1,-41,37,-127,94,-34, 
  /* [38][0][][] */ 16,62,-25,-59,127,-2,7,-54,83,45,-10,-38,-2,-29,42,24, 
  /* [39][0][][] */ -32,85,0,-127,-7,5,-39,36,43,-75,-34,-34,20,64,40,29, 
  /* [40][0][][] */ 2,-41,-14,-106,9,-14,-20,-39,-127,12,-7,-44,-15,-94,75,-37, 
  /* [41][0][][] */ -10,-10,-26,-16,-9,-46,31,-5,-33,25,-42,17,-127,17,37,33, 
  /* [42][0][][] */ 102,103,-35,-25,-78,-88,6,-62,11,44,80,-75,-66,50,115,-127, 
  /* [43][0][][] */ -18,123,-77,-15,83,-24,110,-57,48,77,-56,-31,24,-127,-66,-42, 
  /* [44][0][][] */ -24,-72,-22,-30,104,-2,-127,-120,22,-27,24,2,5,-46,50,-13, 
  /* [45][0][][] */ -25,63,-90,-60,39,-85,24,-74,-7,42,5,-127,34,-15,67,-2, 
  /* [46][0][][] */ 11,-11,-33,-80,-6,18,21,-31,-101,-27,10,12,-13,-127,46,-24, 
  /* [47][0][][] */ 30,42,18,-11,127,-6,-31,23,-58,37,0,30,0,2,108,-35, 
  /* [48][0][][] */ -127,-85,-16,51,56,13,19,-9,7,-20,-117,58,70,11,59,34, 
  /* [49][0][][] */ -12,60,95,73,127,42,23,-3,-81,-74,-35,-73,9,93,57,-74, 
  /* [50][0][][] */ 53,30,-102,-41,52,-127,-38,-51,-30,-37,-17,-64,81,-47,-15,38, 
  /* [51][0][][] */ 12,14,40,19,28,1,9,40,-127,63,-2,-85,3,-89,-27,73, 
  /* [52][0][][] */ 2,31,14,46,20,3,26,47,62,81,-17,-44,43,127,73,20, 
  /* [53][0][][] */ -8,-58,-18,-3,-105,-24,-53,20,36,42,10,-33,19,-93,127,12, 
  /* [54][0][][] */ 50,-18,-46,-5,122,34,-65,-41,-65,16,-41,-127,9,-25,-1,-4, 
  /* [55][0][][] */ 39,-8,-5,-2,48,-33,-62,-127,-28,-70,-57,-10,0,-40,6,11, 
  /* [56][0][][] */ -9,4,21,-23,-12,-35,-96,82,-21,127,-3,-16,20,7,14,1, 
  /* [57][0][][] */ -10,34,-18,-25,-46,-48,102,53,-18,30,-13,-3,34,34,127,-24, 
  /* [58][0][][] */ 82,-39,-120,44,68,76,-19,85,-127,2,-19,27,-60,30,-5,-17, 
  /* [59][0][][] */ -105,77,120,18,-80,-52,127,107,27,8,30,0,41,13,77,-11, 
  /* [60][0][][] */ 10,-25,-45,9,10,-127,-5,15,-13,-8,-2,-11,16,-1,0,1, 
  /* [61][0][][] */ 18,-19,28,127,78,16,23,21,-102,1,6,38,-13,33,39,-40, 
  /* [62][0][][] */ -60,127,49,-16,-36,-8,-44,66,8,-56,-112,-22,11,-70,-72,-59, 
  /* [63][0][][] */ -34,10,-19,127,-69,15,-79,-34,-50,-34,-22,-25,17,66,33,34, 
  /* [64][0][][] */ 19,-12,3,31,14,10,-34,56,9,-8,-17,-42,-27,-127,47,-7, 
  /* [65][0][][] */ -19,-19,7,-127,49,-22,50,-68,7,50,-9,-126,-9,-10,23,-57, 
  /* [66][0][][] */ 12,12,45,-32,-11,-13,15,73,9,-29,31,14,11,127,46,66, 
  /* [67][0][][] */ -1,68,-5,-127,-4,-1,-57,37,94,-108,-45,-18,35,78,78,42, 
  /* [68][0][][] */ -22,45,127,4,12,5,-21,-3,-48,-24,-19,-49,7,-14,99,-21, 
  /* [69][0][][] */ 127,77,-27,-4,-95,-46,-21,-34,-4,21,88,-59,-78,72,80,-103, 
  /* [70][0][][] */ 38,-5,-47,-15,-34,38,35,127,-30,73,-31,7,10,76,-14,8, 
  /* [71][0][][] */ 10,-3,-4,12,6,-75,1,23,-39,18,-79,13,-127,-2,42,32, 
  /* [72][0][][] */ 33,16,-127,17,13,18,26,91,-47,-38,-5,-7,35,24,-7,16, 
  /* [73][0][][] */ -47,15,25,-4,51,-34,-60,-127,23,-58,32,-27,14,-43,32,-3, 
  /* [74][0][][] */ 18,7,51,127,22,-19,-68,81,-50,28,-38,47,21,-83,25,-56, 
  /* [75][0][][] */ -2,20,-19,17,21,-7,25,-1,101,20,6,-4,7,127,-34,-5, 
  /* [76][0][][] */ 6,-18,0,26,-9,-20,7,66,18,-16,-19,-127,-3,-6,-5,4, 
  /* [77][0][][] */ 15,-40,-39,127,-53,65,41,125,0,11,24,71,-37,-21,-56,16, 
  /* [78][0][][] */ 6,-22,40,-90,32,-6,-39,50,51,-76,26,-13,47,127,-15,59, 
  /* [79][0][][] */ 15,-82,-75,-39,-79,-2,14,-66,127,12,11,89,31,41,56,-62, 
  /* [80][0][][] */ -24,-19,94,-71,36,-24,8,-78,-28,35,-46,-127,32,81,67,-12, 
  /* [81][0][][] */ -41,44,-127,28,66,-123,-11,56,-5,-45,62,18,28,0,20,-18, 
  /* [82][0][][] */ 127,4,-14,8,22,-69,-32,12,-21,-26,-75,14,86,7,6,18, 
  /* [83][0][][] */ -43,46,-125,-77,-19,-10,31,-127,63,38,-39,-126,3,50,32,99, 
  /* [84][0][][] */ -46,46,72,-33,-22,-42,93,-127,-75,66,-6,-45,25,63,74,-31, 
  /* [85][0][][] */ -83,117,37,-127,-80,-46,-15,8,-82,13,-76,20,-4,-5,-103,-24, 
  /* [86][0][][] */ -6,-11,-25,-3,-33,-28,127,27,-12,-10,7,7,-1,28,76,-10, 
  /* [87][0][][] */ -13,-50,-1,-106,15,-38,43,-16,-12,24,-13,-127,-20,9,-2,-27, 
  /* [88][0][][] */ 107,13,59,-33,46,-109,-4,-2,-45,-2,-127,-50,47,32,121,3, 
  /* [89][0][][] */ 26,-3,-15,-45,16,-7,-28,-16,-44,-22,28,-44,127,-3,35,-61, 
  /* [90][0][][] */ 14,-41,47,-64,71,-5,-61,92,67,-99,-57,-30,-1,117,33,-127, 
  /* [91][0][][] */ -72,-13,-24,-42,35,-4,-28,-127,-5,101,13,-117,-51,-1,-20,-7, 
  /* [92][0][][] */ -18,11,37,17,0,-127,13,4,-5,-20,1,1,-6,-18,19,1, 
  /* [93][0][][] */ 32,-15,127,-14,-57,46,35,-30,-27,31,-60,-29,-9,7,38,-2, 
  /* [94][0][][] */ 42,9,-9,-8,27,-2,-15,-1,-10,-18,-5,-35,127,-9,32,-30, 
  /* [95][0][][] */ 127,70,-23,29,-99,-23,-46,-10,-7,-6,105,0,-59,26,87,-65, 
};
const TfArray<4, int> tensor_dimension7 = { 4, { 96,1,1,16 } };
const TfArray<96, float> quant7_scale = { 96, { 0.00075928954174742103, 0.00099464401137083769, 0.0007811256218701601, 0.0010761787416413426, 0.00097861350513994694, 0.0011870255693793297, 0.00046032780664972961, 0.00079025945160537958, 0.00061844632728025317, 0.0013634491479024291, 0.00047202303539961576, 0.000864826375618577, 0.00069812429137527943, 0.0032715450506657362, 0.00047506717965006828, 0.00065148586872965097, 0.00044140071258880198, 0.00064871879294514656, 0.00093345122877508402, 0.00073905900353565812, 0.00028008842491544783, 0.00025557709159329534, 0.00040444423211738467, 0.00026182510191574693, 0.00043330970220267773, 0.0015085329068824649, 0.0016109737334772944, 0.00092503713676705956, 0.0005473641213029623, 0.0011060931719839573, 0.00064592238049954176, 0.00073204643558710814, 0.00059137458447366953, 0.00069500913377851248, 0.0006690009031444788, 0.00047173377242870629, 0.00056792533723637462, 0.00049495685379952192, 0.0010034863371402025, 0.0011601258302107453, 0.00042198313167318702, 0.0011648030485957861, 0.0007253616931848228, 0.00046297346125356853, 0.0011545373126864433, 0.00058568466920405626, 0.00076733564492315054, 0.00065235217334702611, 0.00077578058699145913, 0.00063282658811658621, 0.00070670293644070625, 0.0005957570974715054, 0.0014887527795508504, 0.00068409886443987489, 0.001061118789948523, 0.0012905701296404004, 0.0013197421794757247, 0.00092636205954477191, 0.00089578778715804219, 0.00044726097257807851, 0.0026792425196617842, 0.0012306305579841137, 0.00054431403987109661, 0.0012670925352722406, 0.0018468222115188837, 0.00075633107917383313, 0.00034350898931734264, 0.00069763418287038803, 0.0010532366577535868, 0.001020910101942718, 0.00085787626449018717, 0.00070839910767972469, 0.0028007312212139368, 0.0010552108287811279, 0.00099120999220758677, 0.00063472206238657236, 0.00080910604447126389, 0.00035037481575272977, 0.00031038722954690456, 0.00058379059191793203, 0.00054485065629705787, 0.0005555942771025002, 0.00069692527176812291, 0.00049153150757774711, 0.00028348105843178928, 0.0007134672487154603, 0.0016393315745517612, 0.00065835600253194571, 0.00035615300294011831, 0.001560912118293345, 0.00063907972071319818, 0.00062162789981812239, 0.00085789075819775462, 0.0015961735043674707, 0.0012065240880474448, 0.00052534113638103008, } };
const TfLiteAffineQuantization quant7 = { (TfLiteFloatArray*)&quant7_scale, (TfLiteIntArray*)&g0::quant6_zero, 0 };
const MODEL_SECTION(EI_MODEL_SECTION) ALIGN(16) int32_t tensor_data8[16] = { -11411, 16042, -17213, 9078, -18810, 12037, 37056, -43799, -647, 21628, 23465, 20137, -1718, 21270, -7850, 11724, };
const TfArray<1, int> tensor_dimension8 = { 1, { 16 } };
const TfArray<16, float> quant8_scale = { 16, { 0.000834947160910815, 0.00036302820080891252, 0.00016986377886496484, 0.00024388468591496348, 0.00038066203705966473, 0.00030199091997928917, 0.00037263278500176966, 0.00030288696871139109, 0.00030046261963434517, 0.00026747563970275223, 0.0008153251837939024, 0.00053879065671935678, 0.00041212467476725578, 0.00019113908638246357, 0.00055889086797833443, 0.00044659143895842135, } };
const TfArray<16, int> quant8_zero = { 16, { 0,0,0,0,0,0,0,0,0,0,0,0,0,0,0,0 } };
const TfLiteAffineQuantization quant8 = { (TfLiteFloatArray*)&quant8_scale, (TfLiteIntArray*)&quant8_zero, 0 };
const MODEL_SECTION(EI_MODEL_SECTION) ALIGN(16) int8_t tensor_data9[16*1*1*96] = { 
  /* [0][0][][] */ -7,-19,10,-14,23,0,-39,4,26,7,-13,10,-13,-10,-18,20,-9,-2,17,-2,0,-32,7,29,3,9,3,127,23,-35,46,-13,-2,3,-3,-2,-6,10,-36,10,-8,17,-2,37,15,-6,8,11,21,3,-10,-10,19,-20,-20,99,-13,22,-38,-34,-25,17,12,-32,-44,-52,-10,35,6,21,27,-6,-12,-32,3,-25,-2,17,7,-3,-11,-24,36,18,-14,-3,-20,-84,-2,-22,22,-10,56,-46,-9,-3, 
  /* [1][0][][] */ 58,-75,-95,-56,127,-8,72,25,-5,-68,-47,-67,3,-32,-50,61,-67,15,48,43,-1,37,-12,-52,22,-18,-17,-75,40,-23,-79,52,-16,60,-3,-2,24,5,7,23,-23,54,-54,-15,-37,66,11,0,4,-63,10,-76,-14,30,50,56,-64,-29,-44,-42,11,-44,5,-57,-85,98,8,-20,-7,-32,-22,15,68,-122,-22,7,68,-67,39,15,-9,-24,13,2,-57,29,-43,36,20,-45,-9,4,22,-27,73,118, 
  /* [2][0][][] */ 22,56,-100,10,90,92,36,118,8,-127,-13,-30,4,0,45,17,24,-28,-73,69,40,8,92,70,81,18,14,-90,3,15,64,-45,20,84,-22,20,-111,-50,79,5,-23,-27,34,-4,7,-5,-7,69,-44,-10,-20,-13,114,4,-1,97,-16,33,31,-3,30,44,13,-30,-9,4,-5,-4,-35,13,-9,-57,-25,-94,3,82,85,53,18,-2,29,-47,15,-30,-49,12,30,28,9,51,21,-38,33,6,-46,-2, 
  /* [3][0][][] */ 26,13,76,-18,21,-15,16,-4,-40,-100,21,14,27,46,5,66,50,-10,2,-11,127,-6,62,6,34,5,-4,-3,16,30,7,71,-99,3,25,2,-16,-13,22,25,-56,-28,85,16,15,45,-31,-75,-50,-46,-24,118,-8,-107,-2,-16,-93,66,52,29,24,114,-14,-3,11,62,-1,-47,28,11,-4,-57,57,-23,38,-12,-23,10,36,29,-16,-64,24,-5,-17,7,31,17,64,28,42,28,51,113,-9,-40, 
  /* [4][0][][] */ 49,0,45,-11,127,51,-12,-30,-57,-43,-23,-48,-85,-1,-17,73,32,-78,-30,120,-37,-3,22,-51,4,-10,-27,16,37,-42,46,-67,100,-2,-49,35,47,-11,-33,10,-22,-35,-48,-11,-1,-97,-10,17,43,43,-60,-39,-10,-57,7,-28,88,-40,-44,28,-6,10,96,36,84,15,-40,-3,-72,-24,37,90,-3,-75,-67,-17,49,30,95,-43,-4,-66,8,-5,-75,22,19,89,-104,4,-12,-34,-4,-19,50,0, 
  /* [5][0][][] */ 1,-13,-10,14,30,-24,50,-27,-24,-56,-23,16,14,29,-4,5,-4,-10,21,-8,58,9,-49,93,-8,8,28,-127,-8,26,41,38,-24,-14,23,-59,24,34,-19,20,-21,-24,34,-16,-14,15,9,-4,-31,-27,31,-2,-8,-32,-11,-39,-14,38,-27,37,77,33,11,37,-6,83,-16,89,5,99,22,36,17,4,-12,80,-42,-11,9,20,8,-23,-3,22,-13,10,7,122,12,38,7,-30,8,40,-77,4, 
  /* [6][0][][] */ 5,-78,4,-43,-30,-4,56,23,8,-12,-24,-70,-13,13,-27,21,15,-14,-21,-27,-24,23,25,23,-14,11,2,-49,-14,23,39,17,40,13,52,-3,-12,5,38,-89,-25,87,5,-40,7,1,-2,9,-6,16,-8,99,-25,-63,-12,-8,-29,-53,-9,9,-6,92,18,-63,4,-22,25,-18,-1,14,127,2,-16,0,-11,12,-78,-3,5,11,22,48,-2,18,-18,-14,55,-14,40,28,42,-49,-6,18,-67,-44, 
  /* [7][0][][] */ -1,127,32,1,97,85,40,-1,-38,-51,32,11,-7,43,5,21,27,-45,-1,7,53,-22,48,32,14,23,14,-7,-8,1,33,31,23,-4,-34,9,4,15,44,65,-55,30,22,21,-17,-6,26,-19,-34,-39,37,20,31,-44,-24,37,-11,7,-12,0,-5,-8,-4,-4,-51,67,-6,-79,1,13,7,66,-18,-41,13,12,52,64,23,-15,-40,-20,2,1,-6,54,6,-24,6,31,-20,-47,-1,7,-17,-10, 
  /* [8][0][][] */ -5,-3,66,43,-117,-50,61,-13,46,81,73,-10,-44,-4,48,-7,-58,24,11,14,-52,-5,-127,76,-6,-41,69,-4,19,20,-24,46,58,-28,4,10,-41,-9,-22,12,-22,-45,33,7,-35,43,50,-32,-112,29,7,-4,-72,-56,-42,40,42,-66,-89,-23,44,-56,-24,-16,-7,32,-29,-35,22,-26,-33,-8,21,69,36,-1,-9,-52,3,23,-83,4,-27,14,30,5,100,45,23,-55,4,24,-9,18,47,18, 
  /* [9][0][][] */ -13,-100,-70,27,77,85,-41,-30,36,-25,82,74,-18,-5,90,-127,33,-30,-52,17,-56,-34,34,-3,1,1,9,-21,-23,-11,-13,-25,22,56,-68,14,14,34,0,50,40,-34,-1,66,2,-4,-71,-26,-9,27,-11,-29,79,30,-3,-46,9,98,3,3,15,-16,-61,114,-84,-11,43,-27,13,50,-67,-103,62,-14,10,19,29,-69,20,8,6,-44,-2,35,-8,-38,16,-19,28,8,-73,21,-65,-8,12,-46, 
  /* [10][0][][] */ -72,-18,-28,-52,-9,-2,60,-19,23,11,15,48,39,1,-11,5,-11,18,-32,-22,15,29,14,13,-19,1,14,-127,25,-40,62,-14,-7,-1,1,1,2,32,8,-5,11,-31,22,-47,16,-3,24,35,4,28,-3,11,-26,-23,3,-52,6,15,1,-30,28,28,2,13,-32,95,-23,-12,19,-16,-6,-21,-17,-6,31,49,-10,44,-21,21,-17,10,-1,26,9,-5,14,95,8,8,17,13,29,-17,11,-54, 
  /* [11][0][][] */ -95,30,5,-5,16,-71,-17,5,-70,-21,-10,35,37,33,-45,-9,40,-15,-65,-65,39,7,2,3,73,9,76,-11,-36,31,-37,31,-22,-3,-1,-5,-22,8,41,7,-34,-10,14,-4,76,39,84,22,49,15,-3,52,6,-60,33,-21,-93,-16,-17,-46,-4,9,-9,15,-26,-12,11,2,27,21,0,46,-33,20,20,3,-36,81,-127,65,-25,-4,-79,-67,125,14,56,-34,32,60,-4,-61,-5,75,-57,-29, 
  /* [12][0][][] */ 7,-11,-23,1,44,3,4,6,6,21,14,-43,-13,-10,37,12,-35,2,15,-37,-29,-20,-47,68,-9,30,-27,96,-10,33,-36,21,-19,48,-14,4,-20,-6,17,7,-12,-28,-18,-14,-6,-16,30,-6,-9,29,1,-87,-20,-7,-15,28,-39,-16,4,11,-16,-34,5,11,31,-116,20,55,-29,-127,0,62,5,-14,20,43,35,-25,2,5,-20,8,-35,-11,5,-41,-20,-59,-14,19,-9,-12,-12,6,2,38, 
  /* [13][0][][] */ -108,79,-15,-27,-71,3,14,40,-55,-40,25,27,82,42,-47,-15,-23,31,-53,-37,32,1,84,-6,96,53,10,-28,3,-8,-37,-97,-110,-30,18,15,-33,38,69,-43,-80,97,13,-4,31,22,1,-18,69,-38,69,97,63,-87,74,-28,-73,62,59,-15,23,81,-23,4,-39,-21,6,-13,18,66,44,-127,3,-54,-69,1,53,49,-54,-24,91,-1,-3,-17,62,-80,127,-21,-2,5,-30,17,86,-31,-74,8, 
  /* [14][0][][] */ -28,17,-14,-44,42,5,-13,34,-45,35,-8,-8,-27,-55,-64,-17,-81,-8,74,16,19,-15,-2,-87,-29,-1,-44,-23,20,-19,-17,-29,-67,-8,0,-6,-14,19,11,15,4,84,-100,-19,-56,20,-3,-4,127,-9,34,-48,38,59,-100,60,-53,29,-108,9,0,28,57,17,23,17,18,-2,-58,28,67,24,40,-34,-23,20,104,-76,-38,-96,-13,-42,3,25,20,-90,-50,-11,-44,33,-11,39,14,34,53,-8, 
  /* [15][0][][] */ -56,-96,0,-33,4,7,-2,-77,-26,24,-1,-35,38,-1,58,-16,-101,-9,-27,13,-28,9,-77,-33,-20,-7,-15,5,-8,-20,71,-85,-11,42,16,2,16,26,-102,-6,19,-50,-12,16,-27,-38,29,27,65,15,0,-127,12,69,1,34,51,-9,-22,42,19,24,36,-5,-4,-5,-2,-4,-32,43,-10,20,-29,1,-9,-32,-59,7,9,-4,0,48,-5,57,-10,-41,-54,-18,-54,56,46,100,-52,-8,31,-2, 
};
const TfArray<4, int> tensor_dimension9 = { 4, { 16,1,1,96 } };
const TfArray<16, float> quant9_scale = { 16, { 0.035485252737998962, 0.015428698621690273, 0.0072192107327282429, 0.010365098714828491, 0.016178136691451073, 0.012834614142775536, 0.015836892649531364, 0.012872695922851562, 0.012769660912454128, 0.011367714032530785, 0.034651320427656174, 0.022898603230714798, 0.01751529797911644, 0.0081234108656644821, 0.023752860724925995, 0.018980136141180992, } };
const TfLiteAffineQuantization quant9 = { (TfLiteFloatArray*)&quant9_scale, (TfLiteIntArray*)&g0::quant8_zero, 0 };
const MODEL_SECTION(EI_MODEL_SECTION) ALIGN(16) int32_t tensor_data10[96] = { 19087, 55147, 322, -1648, 14831, -3438, -397, 749, 7390, 11410, -3850, 412, 879, 4170, 4586, -11076, -4519, 1450, 93, 10036, -9954, 11028, -2470, 7028, 16529, -349, -5554, 17034, 14383, -18335, 1832, 22157, 24614, -10745, 2717, 487, 662, -1350, 2464, -9405, -4106, -644, -6332, 135, 29934, -162, 10739, 267, -15377, 1401, -296, -307, -2589, 17537, -3951, 12526, 16097, -779, 35741, 456, -7966, -220, -57, 153, -5336, 14013, -1316, -12620, -2393, 2855, 778, -3711, 90, -46, -2661, -7596, -775, -1807, 40933, -8986, -6152, -12374, -1924, -136, 58641, -13882, -9700, -27819, -8189, 6844, -2972, 32479, -1393, -1132, -1022, -54, };
const TfArray<96, float> quant10_scale = { 96, { 0.0001290176878683269, 0.00010411941912025213, 0.00012143622734583914, 0.00021321585518307984, 0.00023915396013762802, 0.00021750014275312424, 4.7058372729225084e-05, 9.5378105470445007e-05, 0.00024996136198751628, 0.00021274338359944522, 0.00028366653714329004, 0.00012855759996455163, 0.0003101917973253876, 0.00022718630498275161, 0.00037175216129980981, 0.00015582791820634156, 0.00019472066196613014, 0.0001976522762561217, 0.00017558243416715413, 0.00011315602023387328, 7.2491740866098553e-05, 3.2034367904998362e-05, 0.00014416311751119792, 9.6444360679015517e-05, 9.005833271658048e-05, 9.9515862530097365e-05, 0.00014567551261279732, 0.00017947409651242197, 7.4826457421295345e-05, 0.00055075273849070072, 0.00035164272412657738, 0.00026992784114554524, 9.6611220214981586e-05, 0.00013279399718157947, 0.00024221022613346577, 0.00041481087100692093, 0.00042808082071132958, 0.00021059415303170681, 0.00028448706143535674, 8.2366132119204849e-05, 0.00021376325457822531, 0.00024673383450135589, 0.00040520491893403232, 5.9453261201269925e-05, 0.0003389033954590559, 8.9303583081346005e-05, 0.00010861003102036193, 0.0003970275865867734, 0.00061039946740493178, 0.00014110359188634902, 0.00045293933362700045, 0.00016078524640761316, 0.00017321898485533893, 0.00016063642397057265, 0.00024213363940361887, 0.00013200486137066036, 0.00018697949417401105, 0.00046536768786609173, 3.9406771975336596e-05, 0.00016162049723789096, 0.00029495559283532202, 0.00032719524460844696, 0.00012681615771725774, 0.00013876458979211748, 0.00014740962069481611, 0.0001247033360414207, 0.0003414467500988394, 0.00016762761515565217, 0.00023277613217942417, 0.00014066087896935642, 0.00018267461564391851, 0.00010262925206916407, 0.00028429139638319612, 0.00015751624596305192, 0.00027874487568624318, 0.00024722839589230716, 0.00014407437993213534, 7.9915756941772997e-05, 6.2249244365375489e-05, 0.00014166045002639294, 0.00019309586787130684, 0.00024595169816166162, 0.0001584484416525811, 0.00026867067208513618, 6.0814840253442526e-05, 0.00011347727559041232, 7.4401359597686678e-05, 0.0004733412351924926, 0.00024378225498367101, 0.00012348697055131197, 0.00034078603493981063, 3.06384899886325e-05, 0.00015470903599634767, 0.00011426489072619006, 0.00048795173643156886, 0.00027640649932436645, } };
const TfLiteAffineQuantization quant10 = { (TfLiteFloatArray*)&quant10_scale, (TfLiteIntArray*)&g0::quant6_zero, 0 };
const MODEL_SECTION(EI_MODEL_SECTION) ALIGN(16) int8_t tensor_data11[1*3*3*96] = { 
  /* [0][0][][] */ -51,-70,-12,127,22,79,74,-60,-15,-20,-15,-6,-31,1,38,5,-5,-47,28,21,22,-127,127,4,-65,3,49,-27,-127,-127,38,27,10,40,59,-23,-35,-12,30,-9,-15,29,-97,64,23,-72,37,47,-17,51,-23,21,13,-11,16,48,-95,-46,-58,-23,-13,-2,19,37,73,-26,73,19,-6,20,20,127,26,27,32,2,-8,19,127,-2,-16,15,-21,23,127,21,-80,-16,0,-33,-15,-49,3,-27,-17,26, 127,-127,73,107,-43,127,40,-120,69,5,-17,127,127,-92,-13,16,14,127,127,-112,127,-83,80,65,-120,-117,-71,-34,-52,45,-62,-20,-91,52,-127,-90,-48,-15,-50,64,-2,127,127,78,-50,-120,-116,-48,-15,-127,46,87,74,-34,50,80,-51,43,-81,-118,-46,-43,-56,65,79,-65,28,37,-81,31,-17,91,122,127,19,21,4,60,-31,56,63,127,127,-22,-6,76,-114,127,-119,-101,3,-127,-87,-127,-38,110, -78,-16,28,-84,14,-23,59,-9,79,-35,-28,15,-16,5,-9,-8,-6,-20,10,-4,-18,-111,32,1,-127,93,5,-56,99,47,-16,11,-6,24,13,-32,-19,33,20,16,26,14,-111,65,15,-21,42,17,-14,10,-15,6,-1,-2,-1,27,-73,7,-30,52,1,40,40,-3,0,-42,-26,31,6,5,-1,41,12,-19,-7,5,-10,-4,-81,1,-22,-20,-13,0,-112,11,-36,-22,-48,29,-26,-36,31,-27,-18,6, 
  /* [0][1][][] */ -67,-73,67,-33,-49,100,22,127,-54,-22,0,-123,22,-116,79,32,-1,-68,-21,88,50,-71,47,51,-100,-15,127,-21,-18,58,123,-99,-127,98,-88,-61,-38,33,-28,99,-54,-27,-3,45,-47,127,-21,63,16,94,19,-2,19,-58,25,32,127,125,-70,-87,127,-33,-35,127,75,-39,-17,3,127,42,127,86,-39,100,-4,13,15,12,-28,8,-43,116,-72,113,1,32,-54,29,84,-127,-31,-2,127,-72,-24,2, 67,122,51,-110,127,80,88,36,-127,127,127,-42,-63,-127,-127,127,127,-68,-126,-51,99,92,-127,127,-101,-87,-46,127,-119,107,-127,-127,-86,127,108,127,127,-127,-102,127,-70,-98,99,-127,-127,-42,-127,-127,127,-110,85,44,127,127,127,-127,103,-127,-127,127,17,-78,-127,-103,-127,127,-127,127,-123,-127,-107,-86,-127,-77,127,127,-127,127,-73,127,127,33,-42,-127,57,127,91,44,127,19,127,9,-66,31,127,-127, -55,-15,-52,35,-57,-93,31,-26,16,-33,-28,90,1,93,14,16,-2,60,-6,125,10,-90,-42,7,-74,102,-73,-20,-76,-16,17,-62,-76,40,5,-19,-31,47,-63,47,127,-3,-39,30,-41,-65,17,45,9,116,-11,5,-33,-74,-2,24,94,4,5,24,-37,127,92,-55,-37,11,40,-6,-78,119,-16,-85,2,-50,-19,-22,28,15,74,-40,-70,-39,57,14,-52,-11,69,22,17,72,-42,25,-40,93,-28,1, 
  /* [0][2][][] */ -74,1,-7,-17,11,-50,65,23,51,-27,-36,-8,14,22,-26,10,-6,61,8,2,-65,-77,2,-5,-4,-50,35,-68,87,38,26,32,11,-16,-15,-50,-9,37,-1,-8,-14,-7,-62,109,4,30,16,31,-16,-31,9,-21,22,-3,13,19,-73,26,-16,14,16,-2,-18,-5,6,-46,-48,18,-31,12,25,32,15,-16,26,5,20,9,-75,-8,-9,-7,21,16,-127,7,13,-43,-59,-50,-26,-51,11,60,-20,-9, 122,29,-127,-30,-73,-25,38,29,-67,-26,-20,-111,-73,107,-12,47,1,-59,-7,-127,83,-51,-40,-1,-95,127,-55,21,-35,-19,-9,-6,-66,14,26,4,-25,-24,127,58,9,-16,56,-34,-37,77,-65,-47,-33,-6,-127,-127,-54,-28,4,42,-68,-5,11,38,-11,-19,10,-50,-51,35,64,-26,113,108,-25,-68,12,-54,4,4,100,7,50,25,11,-87,-45,4,5,14,127,40,-62,44,-20,-113,41,80,-11,25, -61,11,-20,26,14,-63,-127,2,-16,-8,-16,0,12,-11,20,7,-7,-24,6,17,-59,-73,13,-1,38,-90,17,2,-52,-37,-8,13,35,-27,-8,-27,-37,9,44,-45,23,-2,-49,-30,3,66,29,13,-10,-7,10,-12,20,5,-2,0,-65,-12,6,-36,-14,9,87,-14,41,-2,1,37,1,5,-5,23,-18,16,-5,12,39,8,74,-8,3,-9,-4,-17,72,3,42,-38,58,50,-16,-49,-4,3,-16,-11, 
};
const TfArray<4, int> tensor_dimension11 = { 4, { 1,3,3,96 } };
const TfArray<96, float> quant11_scale = { 96, { 0.0054832515306770802, 0.0044250753708183765, 0.0051610395312309265, 0.0090616736561059952, 0.010164042934775352, 0.0092437556013464928, 0.0019999807700514793, 0.0040535693988204002, 0.010623358190059662, 0.0090415934100747108, 0.012055827304720879, 0.0054636979475617409, 0.013183151371777058, 0.009655417874455452, 0.015799466520547867, 0.0066226865164935589, 0.0082756280899047852, 0.0084002213552594185, 0.0074622533284127712, 0.0048091309145092964, 0.0030808988958597183, 0.0013614606577903032, 0.0061269323341548443, 0.0040988852269947529, 0.0038274792023003101, 0.0042294240556657314, 0.0061912089586257935, 0.0076276492327451706, 0.0031801243312656879, 0.023406989872455597, 0.014944815076887608, 0.011471932753920555, 0.0041059767827391624, 0.0056437444873154163, 0.010293934494256973, 0.017629461362957954, 0.018193434923887253, 0.0089502511546015739, 0.012090699747204781, 0.0035005605313926935, 0.0090849380940198898, 0.010486187413334846, 0.017221208661794662, 0.0025267635937780142, 0.014403394423425198, 0.0037954021245241165, 0.0046159261837601662, 0.016873672604560852, 0.025941977277398109, 0.0059969024732708931, 0.019249921664595604, 0.006833372637629509, 0.0073618069291114807, 0.0068270480260252953, 0.010290679521858692, 0.0056102066300809383, 0.0079466281458735466, 0.01977812685072422, 0.0016747878398746252, 0.0068688709288835526, 0.012535612098872662, 0.013905798085033894, 0.0053896866738796234, 0.0058974949643015862, 0.006264908704906702, 0.0052998918108642101, 0.014511486515402794, 0.0071241734549403191, 0.0098929852247238159, 0.0059780874289572239, 0.0077636707574129105, 0.0043617431074380875, 0.012082383967936039, 0.0066944402642548084, 0.011846656911075115, 0.010507206432521343, 0.0061231609433889389, 0.0033964195754379034, 0.0026455929037183523, 0.0060205687768757343, 0.0082065742462873459, 0.010452947579324245, 0.0067340587265789509, 0.011418502777814865, 0.002584630623459816, 0.0048227841034531593, 0.0031620578374713659, 0.020117001608014107, 0.010360745713114738, 0.0052481964230537415, 0.014483406208455563, 0.0013021357590332627, 0.0065751336514949799, 0.0048562576994299889, 0.020737947896122932, 0.011747275479137897, } };
const TfLiteAffineQuantization quant11 = { (TfLiteFloatArray*)&quant11_scale, (TfLiteIntArray*)&g0::quant6_zero, 3 };
const MODEL_SECTION(EI_MODEL_SECTION) ALIGN(16) int32_t tensor_data12[96] = { 1113, 4562, 8527, 20955, 12706, -2294, -1778, 5686, 28574, -2842, 8042, 4356, 7003, 11148, 19750, 1265, 1588, 7045, 7001, 3068, -376, 417, 9796, -739, 4209, 288, 9033, 5963, 4602, 31673, 35572, 18329, 6628, -666, 9263, 2435, 2340, 3362, 19019, -684, 6817, 7331, 41783, -2349, 20905, 6445, 4329, 9204, 33917, 8091, -446, 5783, -2294, -124, -2165, 3719, -780, 15186, 4580, 7931, 5617, 9238, 5644, 3918, 7879, 7715, 5954, -2643, 5819, -2136, 3486, 5622, 13553, 5207, -3076, -2491, 5689, 393, 2041, -798, 16455, 9505, 2207, 12130, 2089, 191, 10460, 64514, 7869, 9285, 6317, -430, 5166, 8433, 5710, 8224, };
const TfArray<96, float> quant12_scale = { 96, { 0.00027672215946950018, 0.00031977621256373823, 0.00021976641437504441, 0.0001119824664783664, 0.00023251073434948921, 0.00046205354738049209, 0.0004811700782738626, 0.00029218045528978109, 8.2168357039336115e-05, 0.00043729518074542284, 0.00033906372846104205, 0.00020042472169734538, 0.00018005141464527696, 0.00021590413234662265, 0.00012002507719444111, 0.00043160642962902784, 0.00026282964972779155, 0.00019205379066988826, 0.00031824293546378613, 0.00037632221938110888, 0.00030142581090331078, 0.00052832718938589096, 0.00019189526210539043, 0.00088800908997654915, 0.00061212113359943032, 0.00029471027664840221, 0.0002426154533168301, 0.0002465774305164814, 0.00036018234095536172, 0.00011273135169176385, 7.8941935498733073e-05, 0.00013954607129562646, 0.00024411172489635646, 0.00037753881770186126, 0.00022021782933734357, 0.00026639457792043686, 0.00024606336955912411, 0.00042218921589665115, 0.00013679578842129558, 0.00083053531125187874, 0.00027351744938641787, 0.00022354227257892489, 6.5190281020477414e-05, 0.00046685145935043693, 0.00015657157928217202, 0.00024105221382342279, 0.00038495520129799843, 0.0002983083832077682, 0.00012052839883835986, 0.00025739462580531836, 0.0003015147231053561, 0.00027329073054715991, 0.00045771832810714841, 0.00030159749439917505, 0.00047516124323010445, 0.00027159735327586532, 0.00022478577739093453, 0.00012322419206611812, 0.00044213538058102131, 0.00019115059694740921, 0.00028821517480537295, 0.00014566582103725523, 0.00024858923279680312, 0.0002536287356633693, 0.00030986976344138384, 0.00025376459234394133, 0.00022023428755346686, 0.00047517559141851962, 0.00028400917653925717, 0.00033705361420288682, 0.00030985358171164989, 0.00028462961199693382, 0.00015365956642199308, 0.00019094774324912578, 0.00049206201219931245, 0.00052547635277733207, 0.00028543439111672342, 0.00033058357075788081, 0.00040995594463311136, 0.00041706219781190157, 0.00012631477147806436, 0.00017499199020676315, 0.00037362234434112906, 0.00016144753317348659, 0.00057442282559350133, 0.00029091499163769186, 0.00022229748719837517, 6.0256603319430724e-05, 0.00017683021724224091, 0.0002400616358499974, 0.00020257470896467566, 0.00043192488374188542, 0.00027476288960315287, 0.0001901365612866357, 0.00020100669644307345, 0.0002014767233049497, } };
const TfLiteAffineQuantization quant12 = { (TfLiteFloatArray*)&quant12_scale, (TfLiteIntArray*)&g0::quant6_zero, 0 };
const MODEL_SECTION(EI_MODEL_SECTION) ALIGN(16) int8_t tensor_data13[96*1*1*16] = { 
  /* [0][0][][] */ -6,39,-44,48,-8,32,40,-9,29,35,-127,70,-13,-87,37,-114, 
  /* [1][0][][] */ -4,35,43,-1,32,-25,127,-90,-15,76,-18,-27,10,7,31,4, 
  /* [2][0][][] */ -122,28,-30,-35,-1,-15,62,66,-18,34,127,-12,-45,29,53,-78, 
  /* [3][0][][] */ -70,30,20,63,-25,16,54,127,30,48,-112,0,-20,-82,-69,-47, 
  /* [4][0][][] */ -5,-15,30,71,-16,101,-8,35,41,-7,26,15,29,-8,-127,-57, 
  /* [5][0][][] */ 16,-5,42,6,13,-25,-27,24,-68,32,-36,-127,-1,32,-23,-31, 
  /* [6][0][][] */ 22,-10,51,-48,14,18,-127,-80,-34,4,64,-19,116,-36,-54,-10, 
  /* [7][0][][] */ 49,21,127,-55,2,-55,-41,-10,-104,-13,-41,-95,-6,-12,75,-33, 
  /* [8][0][][] */ 37,36,121,127,-100,49,67,51,66,2,17,-75,18,-3,-113,-115, 
  /* [9][0][][] */ 25,-106,55,53,3,-59,15,15,127,34,48,28,-13,26,-92,-13, 
  /* [10][0][][] */ -7,-76,10,18,-91,-13,16,96,38,127,45,-64,5,43,32,23, 
  /* [11][0][][] */ 35,-41,30,-123,45,-9,-127,-70,-95,20,6,-63,64,-95,67,-27, 
  /* [12][0][][] */ -12,8,5,-12,1,-48,-62,35,6,-54,14,21,-4,123,127,100, 
  /* [13][0][][] */ -37,-120,-49,69,18,-36,2,13,7,10,27,54,32,47,127,-11, 
  /* [14][0][][] */ -17,-53,33,14,43,9,26,68,47,79,-11,-28,19,29,-41,127, 
  /* [15][0][][] */ 22,-30,-8,84,21,-3,113,-1,32,-127,14,-33,-2,-23,-9,-59, 
  /* [16][0][][] */ 37,-110,-88,40,25,16,1,-58,127,59,93,-17,13,83,76,106, 
  /* [17][0][][] */ -42,-61,127,54,66,91,-59,-73,50,-112,-3,3,48,92,25,51, 
  /* [18][0][][] */ -20,32,-9,32,-54,9,17,54,-50,-40,-38,-64,23,-127,15,-24, 
  /* [19][0][][] */ 36,-44,21,-43,38,-12,-127,58,73,-73,33,24,-27,65,23,58, 
  /* [20][0][][] */ 7,7,41,-116,-37,-8,-90,30,0,-36,127,-4,-35,-17,-75,125, 
  /* [21][0][][] */ -66,16,18,-55,7,28,-88,-86,-28,80,18,-25,-127,24,78,18, 
  /* [22][0][][] */ 53,-2,10,-52,37,-44,-25,-17,-127,24,28,-57,-10,-4,63,-4, 
  /* [23][0][][] */ 23,-14,9,-14,-21,-3,-6,2,0,1,38,-12,127,-6,-13,-23, 
  /* [24][0][][] */ -12,-23,13,-75,-57,-11,23,7,-27,-4,-6,-127,22,-123,79,29, 
  /* [25][0][][] */ -127,31,-51,-41,48,-12,-81,-103,-18,-6,-37,-34,-59,-62,35,-50, 
  /* [26][0][][] */ 89,-37,51,-105,114,-36,48,22,74,-19,111,-13,-45,127,-6,91, 
  /* [27][0][][] */ 102,-35,2,-33,-34,-34,-15,-29,-7,22,-127,37,10,-5,7,18, 
  /* [28][0][][] */ -127,-21,-98,-68,92,6,37,-59,-13,44,-83,58,31,-22,-34,26, 
  /* [29][0][][] */ -31,-33,-12,127,-21,15,-14,-50,7,-7,-63,30,23,-71,18,-32, 
  /* [30][0][][] */ 52,11,127,31,76,66,-8,83,0,-81,31,-53,-8,13,-59,21, 
  /* [31][0][][] */ 10,-127,-8,-46,-60,-62,42,-20,12,76,102,50,-21,117,89,117, 
  /* [32][0][][] */ -10,78,-33,42,-98,17,-127,-38,-90,-92,35,48,8,46,28,77, 
  /* [33][0][][] */ 31,11,66,100,27,-13,24,-64,-114,57,58,-49,13,33,26,127, 
  /* [34][0][][] */ -18,8,-23,-11,75,-72,-127,-40,-55,89,-57,43,-58,34,-38,-15, 
  /* [35][0][][] */ 103,11,-24,-34,-18,-127,-43,-27,-24,-19,-121,-13,113,55,42,62, 
  /* [36][0][][] */ 12,-13,-127,1,84,40,-69,3,-56,-75,4,-12,-22,9,-38,-4, 
  /* [37][0][][] */ 24,19,127,11,-63,23,45,-36,-15,34,-68,26,28,-12,11,-28, 
  /* [38][0][][] */ -127,-2,-4,12,3,87,-81,-26,18,-82,119,-5,-36,0,37,-126, 
  /* [39][0][][] */ -4,-18,15,40,27,-21,-127,49,10,51,-5,-34,-3,-21,-3,10, 
  /* [40][0][][] */ -14,89,-51,127,23,29,48,6,-33,-36,42,55,-23,46,-15,-18, 
  /* [41][0][][] */ 50,-7,-46,-21,-34,76,127,105,-65,84,-40,-25,30,89,20,43, 
  /* [42][0][][] */ 84,-92,-121,13,127,67,-118,-13,119,-19,111,-41,25,2,-113,-27, 
  /* [43][0][][] */ -61,-15,-4,-27,34,-22,-50,-11,-39,35,15,-16,-127,-11,26,17, 
  /* [44][0][][] */ 5,17,-25,1,12,-9,-5,-68,127,-7,20,68,16,91,38,18, 
  /* [45][0][][] */ -40,-67,32,-76,79,-25,-25,30,-6,-127,43,-10,-14,65,10,51, 
  /* [46][0][][] */ -60,-8,-50,127,-78,-47,39,-64,-105,84,-31,22,-24,62,2,-49, 
  /* [47][0][][] */ -10,-43,-45,127,-6,38,-2,4,-11,19,52,30,5,-20,39,-21, 
  /* [48][0][][] */ -31,-25,-7,-127,40,21,-1,-24,-43,31,7,-8,-13,26,4,19, 
  /* [49][0][][] */ -21,-70,-5,90,9,83,-60,-19,45,-20,-113,15,-1,-49,-69,-127, 
  /* [50][0][][] */ -33,86,33,-117,95,47,-61,67,127,-45,-40,-9,-13,-37,10,-41, 
  /* [51][0][][] */ 53,-33,82,-7,105,-15,-74,-65,20,-127,41,-24,19,-39,22,65, 
  /* [52][0][][] */ 42,24,-23,7,43,-21,-72,69,-127,97,-51,-79,104,84,56,-30, 
  /* [53][0][][] */ -20,73,25,-88,-19,-8,15,-23,-66,-53,-43,59,13,-127,-84,-18, 
  /* [54][0][][] */ -7,-9,24,45,78,-37,-11,-4,1,9,7,-20,-21,127,-52,-15, 
  /* [55][0][][] */ -77,127,86,8,42,17,-6,1,-52,-7,44,-57,33,-7,74,25, 
  /* [56][0][][] */ 76,-24,57,-102,57,-30,-41,96,83,-66,54,94,53,59,127,64, 
  /* [57][0][][] */ 2,0,29,87,-26,21,32,127,-2,28,78,1,-51,81,63,37, 
  /* [58][0][][] */ 11,127,2,-102,15,39,-4,3,109,4,-9,69,-17,-85,34,66, 
  /* [59][0][][] */ 55,48,80,-127,-66,6,18,-5,-9,27,58,-45,-20,-95,-78,-3, 
  /* [60][0][][] */ 50,-14,98,-60,-47,127,44,-13,-64,12,-88,-60,52,-35,-2,-28, 
  /* [61][0][][] */ -34,-35,-20,-25,-53,-24,127,119,14,72,-3,40,27,99,-2,-20, 
  /* [62][0][][] */ -45,44,29,58,6,-10,-127,-48,-65,-61,44,-126,-32,-89,93,-5, 
  /* [63][0][][] */ -23,-40,19,-81,41,23,-123,-127,-36,78,0,15,83,5,33,-31, 
  /* [64][0][][] */ -60,-50,-7,63,116,-37,-19,-110,33,-127,16,-59,-29,-18,14,3, 
  /* [65][0][][] */ -127,31,23,-64,18,60,57,-46,-99,24,43,-25,20,6,-30,-12, 
  /* [66][0][][] */ 89,52,127,12,-80,-14,34,89,-78,-8,72,-79,16,83,-119,24, 
  /* [67][0][][] */ 12,9,-49,21,42,-6,-53,-74,-7,-127,-17,-64,-57,29,-22,36, 
  /* [68][0][][] */ -7,-7,-44,40,-89,-84,10,-62,-40,-35,55,-2,-13,69,127,-54, 
  /* [69][0][][] */ -9,-21,-95,37,13,-127,15,90,11,-8,73,-48,84,43,-12,26, 
  /* [70][0][][] */ 49,33,-42,-53,-82,17,118,127,-56,36,-10,-5,3,46,-4,11, 
  /* [71][0][][] */ -40,-7,-13,-4,45,18,-1,59,-15,-65,9,-4,16,-127,35,-16, 
  /* [72][0][][] */ -20,32,8,50,46,-25,-20,-127,6,35,-58,22,66,86,-9,47, 
  /* [73][0][][] */ -76,-124,-49,-67,-119,-30,65,-40,0,33,-52,-4,47,-93,127,-34, 
  /* [74][0][][] */ -38,31,30,87,8,-3,-127,66,3,-53,-34,-27,-8,-8,-20,-11, 
  /* [75][0][][] */ -64,81,-32,17,-19,102,92,127,-3,27,18,-54,-105,64,41,11, 
  /* [76][0][][] */ 37,17,-24,-34,82,-122,-126,-127,-83,-66,1,-47,44,-50,65,12, 
  /* [77][0][][] */ -7,16,-51,-22,-40,-17,-35,-46,127,-7,-59,25,-3,30,38,-72, 
  /* [78][0][][] */ -127,-127,-70,33,72,62,-44,-9,-28,-65,-79,18,-15,-56,115,94, 
  /* [79][0][][] */ 15,30,-4,-90,127,-11,32,-11,66,34,6,13,-32,-36,44,-37, 
  /* [80][0][][] */ -21,-55,66,-127,12,-44,23,33,-77,-48,26,-26,-3,114,-61,63, 
  /* [81][0][][] */ 46,19,49,31,14,38,-21,-7,8,-14,-26,-49,-18,12,-127,-6, 
  /* [82][0][][] */ -62,-55,-5,-51,33,-21,-9,-28,-22,-24,-69,-127,7,-17,-103,35, 
  /* [83][0][][] */ -26,26,-71,-40,-29,-48,1,69,-74,44,1,-127,-31,-79,7,68, 
  /* [84][0][][] */ 63,79,5,21,-29,0,-49,-13,-5,-12,127,-1,-62,-2,54,-68, 
  /* [85][0][][] */ -17,-54,10,-27,32,-46,-45,127,-101,-114,-54,2,-17,88,51,-106, 
  /* [86][0][][] */ 33,-10,52,2,0,63,-73,36,-127,-124,58,-57,1,-123,8,41, 
  /* [87][0][][] */ 127,-32,42,-9,-24,-51,0,-5,3,4,-107,9,42,13,8,53, 
  /* [88][0][][] */ 127,47,-51,11,-25,-57,-44,-14,94,34,-25,5,-10,-21,72,-86, 
  /* [89][0][][] */ 46,76,-64,-6,-1,-17,27,-58,39,27,-22,-30,-22,-29,-26,-127, 
  /* [90][0][][] */ -34,9,-12,-99,-103,54,127,-49,93,-70,-7,-107,12,-55,-59,-71, 
  /* [91][0][][] */ 47,-8,15,-88,-1,7,-47,-16,-31,-28,103,44,21,-48,22,127, 
  /* [92][0][][] */ 58,18,37,52,77,-34,-77,-127,74,-57,-15,11,-34,-24,-58,-48, 
  /* [93][0][][] */ 58,-29,62,-127,38,-13,3,84,54,-112,116,-13,-19,122,29,71, 
  /* [94][0][][] */ -94,25,-40,-18,102,-24,-73,-18,-43,-127,92,-28,-17,-12,-30,2, 
  /* [95][0][][] */ -23,72,8,-87,14,-29,28,-2,25,-40,-72,-127,37,22,-63,-4, 
};
const TfArray<96, float> quant13_scale = { 96, { 0.0006633060984313488, 0.00076650711707770824, 0.00052678253268823028, 0.00026842320221476257, 0.00055733078625053167, 0.0011075474321842194, 0.0011533700162544847, 0.00070035975659266114, 0.00019695845548994839, 0.0010482013458386064, 0.00081273948308080435, 0.00048042027628980577, 0.00043158521293662488, 0.00051752460421994328, 0.00028770143399015069, 0.0010345653863623738, 0.00063000555383041501, 0.00046035504783503711, 0.000762831827159971, 0.00090204854495823383, 0.00072252098470926285, 0.001266406150534749, 0.000459975068224594, 0.0021285675466060638, 0.0014672611141577363, 0.00070642377249896526, 0.00058155192527920008, 0.00059104879619553685, 0.00086336105596274137, 0.00027021829737350345, 0.00018922469462268054, 0.00033449346665292978, 0.0005851385067217052, 0.00090496474876999855, 0.00052786455489695072, 0.00063855072949081659, 0.00058981659822165966, 0.0010119922226294875, 0.00032790101249702275, 0.0019908023532480001, 0.00065562431700527668, 0.00053583330009132624, 0.00015626182721462101, 0.0011190481018275023, 0.00037530381814576685, 0.00057780480710789561, 0.0009227418340742588, 0.00071504845982417464, 0.00028890790417790413, 0.00061697774799540639, 0.00072273414116352797, 0.00065508089028298855, 0.0010971558513119817, 0.00072293251287192106, 0.0011389667633920908, 0.00065102183725684881, 0.00053881399799138308, 0.00029536974034272134, 0.0010598034132272005, 0.00045819010119885206, 0.00069085496943444014, 0.0003491625830065459, 0.00059587112627923489, 0.00060795084573328495, 0.0007427612436003983, 0.0006082765175960958, 0.00052790401969105005, 0.0011390011059120297, 0.00068077311152592301, 0.00080792122753337026, 0.00074272247729822993, 0.00068226031726226211, 0.00036832367186434567, 0.00045770383439958096, 0.001179478014819324, 0.001259572571143508, 0.00068418937735259533, 0.00079241243656724691, 0.00098266894929111004, 0.00099970272276550531, 0.00030277788755483925, 0.00041945773409679532, 0.0008955769008025527, 0.00038699150900356472, 0.0013768977951258421, 0.00069732643896713853, 0.00053284951718524098, 0.00014443574764300138, 0.00042386399582028389, 0.00057543040020391345, 0.00048557380796410143, 0.001035328721627593, 0.0006586096715182066, 0.00045575943659059703, 0.00048181528109125793, 0.00048294191947206855, } };
const TfLiteAffineQuantization quant13 = { (TfLiteFloatArray*)&quant13_scale, (TfLiteIntArray*)&g0::quant6_zero, 0 };
const MODEL_SECTION(EI_MODEL_SECTION) ALIGN(16) int32_t tensor_data14[16] = { 3530, 9653, -17974, 24759, 34333, -332, -9826, -4760, 30638, -8956, 29436, 12611, -5405, 14437, 32671, -28947, };
const TfArray<16, float> quant14_scale = { 16, { 0.00044952944153919816, 0.00026664414326660335, 0.00025869224919006228, 0.00023551998310722411, 0.00039356236811727285, 0.00036350841401144862, 0.00025274956715293229, 0.00040198556962423027, 0.00016251923807431012, 0.0002675969444680959, 0.00030726869590580463, 0.00074665783904492855, 0.00040728284511715174, 0.00039202329935505986, 0.00054036732763051987, 0.00032295411801896989, } };
const TfLiteAffineQuantization quant14 = { (TfLiteFloatArray*)&quant14_scale, (TfLiteIntArray*)&g0::quant8_zero, 0 };
const MODEL_SECTION(EI_MODEL_SECTION) ALIGN(16) int8_t tensor_data15[16*1*1*96] = { 
  /* [0][0][][] */ 0,5,-12,8,55,65,-20,-13,39,0,23,24,-6,2,22,46,-1,-28,1,-7,109,-66,-9,-17,-40,-47,-34,-96,-17,9,44,20,127,-23,-3,-4,-16,-15,-9,14,-9,20,34,-41,-13,-25,1,17,-23,14,34,21,-43,-4,14,-23,11,35,-12,-57,-71,27,-6,-14,13,15,50,-1,26,-14,-3,-26,-61,-16,-18,12,-14,-89,6,-20,47,-8,-62,-64,25,-32,15,25,-10,6,18,-22,16,20,-3,118, 
  /* [1][0][][] */ 44,-102,35,46,-6,-33,-41,-19,-12,-114,7,44,14,-69,-26,-26,-100,1,-6,41,-30,-119,5,39,127,-30,-96,37,-11,103,5,52,36,1,-106,-36,3,-29,75,-39,-3,-63,34,-48,-35,21,51,-41,46,-28,-8,-62,82,-77,50,-18,17,38,26,-115,13,-26,2,-68,-6,-104,33,30,40,28,-46,2,-86,83,0,114,32,66,37,2,-2,16,-85,27,-91,83,-6,50,-49,31,42,1,-18,-59,23,-3, 
  /* [2][0][][] */ 14,7,5,-40,26,-6,-1,46,57,-29,26,55,4,9,59,-21,-34,-17,26,12,-18,-68,4,-52,13,-15,-14,24,-2,10,82,-61,21,-78,-26,53,49,121,-87,4,0,3,-6,31,-11,-35,-82,28,47,48,-1,-35,40,9,1,-32,-36,15,14,23,9,21,64,99,29,-76,-1,-81,18,-27,15,-1,-7,26,-66,17,23,61,-4,30,0,127,21,-18,-5,14,20,-28,28,17,-2,-54,-38,2,-4,78, 
  /* [3][0][][] */ -35,-2,-35,32,31,-7,-10,-14,-10,23,13,-4,-1,-12,42,0,47,-35,0,16,-15,16,-9,3,-6,10,-2,-5,21,-66,36,-21,16,-10,-20,29,-6,9,-34,6,-8,-64,8,-16,17,-4,-17,14,-127,22,-1,7,-103,-36,-18,-16,10,7,-14,50,11,23,-14,32,-31,-71,-51,11,24,37,3,10,-8,-17,-20,-45,-41,-44,3,-20,3,-32,7,52,47,45,40,4,38,21,11,2,-11,-1,-16,-21, 
  /* [4][0][][] */ 5,-40,18,-35,-26,-4,-38,-17,-27,-17,-34,-7,3,64,4,-11,40,-17,30,-19,-15,0,56,16,-15,-1,8,6,22,8,10,11,-33,-11,-8,-5,25,-28,35,-11,12,-22,-84,-24,4,10,-7,-30,-16,51,-34,-10,-14,-19,8,-22,16,-34,23,34,3,5,27,-2,27,-102,29,-12,-57,21,-36,-4,-21,28,-12,32,-3,45,63,-2,-2,-6,127,-32,17,-34,-22,6,51,-22,-13,12,-33,29,-7,-54, 
  /* [5][0][][] */ -14,-4,-13,-2,21,-19,-10,97,53,-10,-15,-33,-17,19,33,53,-18,1,-19,-29,-33,-5,-7,-56,31,12,36,65,50,8,48,27,-65,7,2,-16,-50,-50,-46,9,-34,-21,-15,11,60,-3,-16,12,17,-7,-22,16,-18,-6,3,-7,-1,-20,-12,38,-35,16,-40,-47,16,19,-34,-21,-5,11,15,0,47,7,5,2,-7,22,8,124,-25,-40,0,38,9,11,21,-20,-2,-6,27,-127,-17,-23,-14,-101, 
  /* [6][0][][] */ -41,25,1,-66,31,-42,-13,36,3,16,-16,-22,39,-61,-8,14,8,-64,-15,23,8,31,-7,10,121,-17,-10,-12,9,-13,0,-35,-17,-13,-28,-25,27,28,2,28,-17,-14,-50,-26,0,-36,6,-127,9,44,-4,6,7,6,-22,-43,52,-17,-14,6,9,23,-29,0,26,79,46,-38,-20,-14,0,-32,49,-18,36,12,-45,23,4,33,-7,-34,36,-26,25,62,22,-17,15,42,-28,-3,-16,-19,-14,8, 
  /* [7][0][][] */ 23,21,3,-32,24,29,-2,-14,-3,-16,-10,-17,-1,-89,40,12,10,-30,-20,-14,19,-7,-53,-21,-31,-10,15,-17,-9,-13,2,0,-22,1,9,-27,0,-25,-60,43,11,3,-15,33,7,8,-42,63,-4,29,-9,-30,-30,8,8,-62,-12,3,-1,16,9,6,-6,8,-8,49,-4,-49,-3,6,20,35,2,-9,-10,4,44,14,-15,-7,2,-22,24,-5,-19,127,17,-4,-52,11,5,14,-12,-3,-3,18, 
  /* [8][0][][] */ -111,67,-45,7,67,-48,6,53,27,120,-49,32,18,33,64,-11,0,59,-107,-11,15,16,-43,-28,-61,-69,30,-10,46,-127,-31,-24,24,8,37,6,-34,32,3,100,-6,49,28,-106,-61,-11,88,-17,-74,45,28,61,-119,81,-27,-19,8,-41,-46,-29,25,-59,-2,30,-43,37,22,-20,35,-11,4,68,-8,6,60,-5,-1,-115,14,-46,3,37,37,10,-88,-38,-3,-51,-21,68,-27,-5,65,-20,-9,-24, 
  /* [9][0][][] */ 11,-16,7,-43,20,30,-1,54,30,-19,27,7,-38,-5,-5,17,-2,-11,9,9,-14,15,15,-35,60,0,3,-20,-35,-50,-2,8,-6,9,8,11,16,88,-58,1,27,30,-18,-83,26,-11,62,-92,-38,-3,-6,18,7,-2,-17,32,-61,45,-44,23,-13,10,11,28,6,127,28,19,7,18,20,-26,-8,-39,-30,14,50,-26,3,38,-2,-29,10,-44,32,49,8,3,-49,38,-44,10,-11,-7,5,5, 
  /* [10][0][][] */ 41,63,-52,49,77,-117,1,-38,16,44,30,5,-20,13,21,-76,26,50,12,27,-80,-30,-21,-47,-89,-32,-71,67,0,55,4,62,-31,-2,27,2,79,-30,-40,8,-15,91,59,13,-54,-3,-53,21,5,10,-44,0,-14,6,-6,-19,12,23,-42,-17,17,1,-19,-2,12,38,43,15,52,-7,66,53,-82,-11,-72,-23,5,31,-34,-15,3,32,-59,-49,90,-61,124,-14,-40,-28,45,-1,107,39,-11,-127, 
  /* [11][0][][] */ 52,33,-28,5,10,14,67,27,1,-27,-25,-8,14,-5,31,12,10,-1,-97,-25,12,30,-22,-29,-40,-31,4,-14,-4,2,-11,-27,-17,-4,27,41,-16,14,-20,34,-1,29,75,-95,23,-33,-3,3,-127,26,7,-59,11,25,-12,-5,-3,-5,4,0,7,-34,-21,18,-41,66,-21,12,28,-19,23,14,-28,-41,19,0,3,-13,-61,-3,18,9,74,39,14,-18,-13,-21,-1,44,-18,1,25,13,-19,40, 
  /* [12][0][][] */ -36,-15,8,-18,-18,6,16,17,127,9,2,-7,1,12,-43,-50,-4,39,9,71,55,26,-30,-22,8,21,32,-50,-99,4,15,-72,6,-21,-2,-42,-5,7,22,-14,-40,-32,0,-17,-17,24,-2,-4,2,-7,-21,23,2,-6,13,-19,66,-19,12,16,-7,-11,3,9,22,32,-45,27,-8,13,-20,-33,18,26,-95,19,10,-6,-7,-48,-8,13,26,34,-36,-20,-38,-39,33,40,-1,36,-38,-22,20,26, 
  /* [13][0][][] */ 39,5,-28,28,53,-8,32,21,-11,3,10,2,24,-10,-5,-18,23,-78,-34,8,-7,-20,-6,-8,-8,-5,4,-14,-31,-54,-18,23,-9,-1,23,36,25,14,-15,26,8,34,29,52,24,29,-19,-127,14,6,16,8,-26,-14,11,-15,-34,13,10,11,8,28,0,10,4,-13,-17,-68,32,13,-1,-38,-15,30,-8,15,-44,6,9,12,49,-6,-15,21,30,36,31,9,-14,10,31,-9,1,11,-7,1, 
  /* [14][0][][] */ -104,-30,33,37,5,-19,-25,23,-11,13,-3,-4,69,-5,-101,-6,49,-19,11,28,-19,-27,6,10,-103,-23,8,-4,-28,-51,-2,11,16,-9,15,-54,43,35,-7,15,9,21,3,-46,21,127,70,45,-84,47,24,15,-35,-18,17,-13,8,17,57,50,34,64,34,34,23,-27,-38,70,-2,65,-35,-42,-75,14,-15,32,-9,30,67,5,45,21,33,7,19,10,39,32,45,19,71,-11,-29,26,19,-34, 
  /* [15][0][][] */ 102,-30,65,39,-16,34,65,-10,-20,59,-16,-3,-72,-13,-22,14,-11,35,72,-61,4,20,-85,99,-8,9,30,-10,15,109,-82,-78,-20,-62,86,27,41,-23,-66,-100,30,48,15,53,-2,66,-11,-19,127,21,-57,37,28,-103,39,-127,10,-71,1,28,-124,-19,2,9,75,-6,-28,44,-25,69,-27,17,16,0,6,-12,12,-47,47,-40,-12,11,68,85,-16,2,-9,-73,26,-61,73,5,-68,69,48,-29, 
};
const TfArray<16, float> quant15_scale = { 16, { 0.019105000421404839, 0.011332375928759575, 0.010994420386850834, 0.010009598918259144, 0.016726400703191757, 0.015449107624590397, 0.010741855949163437, 0.017084386199712753, 0.0069070672616362572, 0.011372869834303856, 0.013058919459581375, 0.031732957810163498, 0.017309520393610001, 0.016660990193486214, 0.022965610027313232, 0.013725549913942814, } };
const TfLiteAffineQuantization quant15 = { (TfLiteFloatArray*)&quant15_scale, (TfLiteIntArray*)&g0::quant8_zero, 0 };
const MODEL_SECTION(EI_MODEL_SECTION) ALIGN(16) int32_t tensor_data16[96] = { 9054, -9211, 4212, 61870, -1168, -3826, -9728, 3220, -3069, 719, 2741, -1192, 2228, -4996, 7756, -8873, -352, 17448, 27383, 1911, 1764, -5205, -122, -36, 16132, 146, 303, -3992, -5644, -6540, 7258, -10865, -2947, -732, -209, 15401, 899, -4504, 23631, -323, -540, 1833, -8364, -7696, -7558, 63216, -1770, 22871, 34861, -13463, -537, 8369, 6784, -1294, -5465, 1050, -10544, 684, 569, -6891, 1507, -199, -15612, 489, 2350, 12602, 29325, 18846, -12521, 428, -6876, -818, 48617, 13129, -436, -402, 18548, 37573, 275, -5074, -639, -9323, 994, -2320, 233, 809, 1889, -1102, 1758, -1592, 943, 38, -1081, 1541, 45, 47731, };
const TfArray<96, float> quant16_scale = { 96, { 0.00026253581745550036, 0.00011643920879578218, 0.00024495067191310227, 3.5218887205701321e-05, 0.0001558440417284146, 0.00017043064872268587, 0.00035824257065542042, 7.7412652899511158e-05, 9.6385876531712711e-05, 0.00050540734082460403, 0.00018734925833996385, 0.00030440656701102853, 0.00011142037692479789, 0.0004172827466391027, 0.00014639875735156238, 9.4458300736732781e-05, 9.1433852503541857e-05, 0.00029197672847658396, 5.4985543101793155e-05, 0.00030027877073734999, 4.6640256186947227e-05, 0.00017991577624343336, 0.0001301426236750558, 0.00040032167453318834, 0.00023520534159615636, 0.0002421847457299009, 0.00014164946333039552, 0.00017633440438657999, 0.00011104005534434691, 0.0001094665058190003, 0.00012181676720501855, 0.00017517566448077559, 0.00011828071001218632, 0.00011100259871454909, 0.0002136371040251106, 0.00015645194798707962, 0.00037618528585880995, 0.00012046899792039767, 5.8768717281054705e-05, 0.00018152488337364048, 0.00023376387252938002, 0.00034057741868309677, 0.00041835397132672369, 0.00017372381989844143, 0.00019954246818087995, 5.9240970585960895e-05, 0.00020733228302560747, 0.00014023768017068505, 7.7034783316776156e-05, 0.00016452495765406638, 0.00017290392133872956, 0.00015763685223646462, 0.00022368665668182075, 0.00027015473460778594, 0.00030183178023435175, 0.00042136287083849311, 0.00038851320277899504, 0.00021736709459219128, 0.00011518833343870938, 9.3783026386518031e-05, 0.00034854147816076875, 0.00015702388191130012, 0.00026582888676784933, 0.00013394253619480878, 0.00018900705617852509, 0.00023919077648315579, 7.873948197811842e-05, 8.9709217718336731e-05, 0.00035409102565608919, 0.00027083614259026945, 0.00021446938626468182, 0.0001044084710883908, 0.00011760249617509544, 0.00013730132195632905, 0.00014112736971583217, 0.0002399134828010574, 0.00051489361794665456, 4.4605767470784485e-05, 0.00029146563610993326, 0.00035767568624578416, 0.00015399559924844652, 0.00021999559248797596, 8.8459411927033216e-05, 0.00010638341336743906, 0.00013825969654135406, 0.00010686609311960638, 0.00013637046504300088, 0.00019506948592606932, 0.00020935251086484641, 0.00014267372898757458, 0.00020454238983802497, 0.00011699050082825124, 0.00014041026588529348, 0.00044686195906251669, 0.027496747672557831, 8.4819788753520697e-05, } };
const TfLiteAffineQuantization quant16 = { (TfLiteFloatArray*)&quant16_scale, (TfLiteIntArray*)&g0::quant6_zero, 0 };
const MODEL_SECTION(EI_MODEL_SECTION) ALIGN(16) int8_t tensor_data17[1*3*3*96] = { 
  /* [0][0][][] */ -19,8,-23,112,-20,22,-64,-52,17,-5,101,-12,0,-9,-6,52,6,14,-34,-1,81,2,35,-31,1,15,37,47,22,14,22,52,-2,24,10,-15,4,47,-56,-30,19,11,24,18,-83,-53,27,-6,-12,-22,-8,-6,53,5,-13,2,-3,-35,26,-30,26,-4,127,26,-15,-9,3,-52,66,37,-3,-6,83,-33,76,9,18,-127,32,65,-1,13,127,-16,38,25,-29,-15,36,-9,-12,78,5,14,-3,11, -50,15,-11,14,51,-7,-11,-127,37,14,-127,-6,-14,-17,2,91,19,-33,-9,-19,78,-95,127,27,-62,-32,-106,-19,32,36,-52,21,127,11,-13,-1,-26,127,-74,-127,8,-19,-32,11,49,-127,127,-45,-76,50,48,8,42,-61,28,57,34,43,-98,84,127,36,6,-22,45,-37,-98,-2,38,-29,-16,49,-43,-50,113,-2,-27,-60,-32,66,-73,64,-22,9,-11,42,53,-38,-26,54,-12,69,-127,-35,23,-127, -2,-5,-26,-74,7,24,38,19,-1,1,7,60,-1,-12,-13,8,-13,14,-18,16,11,28,24,-33,-1,-31,7,17,-8,3,47,-78,50,14,10,-22,16,3,-46,-21,6,4,-18,7,26,-34,22,-1,6,-6,5,-4,5,5,-7,12,-8,49,8,0,7,-18,7,-17,-28,-18,25,-51,-105,-2,43,-21,-127,-24,-10,23,11,-16,7,12,-17,27,-44,-5,-41,20,24,41,-23,-19,26,-11,14,2,-3,-52, 
  /* [0][1][][] */ -42,57,-21,37,-88,-19,-11,-43,28,96,-43,-22,-33,-24,-9,65,127,-24,-96,-14,61,-127,-28,16,-35,-52,-127,-4,34,41,-50,30,-121,-78,-56,2,70,-2,-45,48,-18,89,1,4,35,-45,-12,-32,127,45,-6,23,45,9,-37,-16,31,11,-117,127,-42,-89,23,127,-70,-33,-82,124,-38,127,-22,55,-30,-58,40,10,-37,-72,127,49,127,32,4,1,127,26,-98,49,-37,-36,-102,39,104,104,28,-57, 127,127,127,127,-46,-127,127,23,127,-127,18,-127,-104,127,127,127,-13,-127,-65,-127,127,27,-66,127,127,127,-56,-127,127,127,-127,127,-3,-127,-123,127,-127,-43,87,115,-127,-127,127,127,127,-114,-105,127,-14,127,-127,-127,-127,127,127,-127,127,-127,-39,41,-119,-28,-68,-70,127,127,-69,127,127,-107,-127,127,-43,127,-127,-127,-127,126,-77,127,-43,127,92,127,-37,-127,-28,-107,-127,-122,-24,-127,-19,-127,-127,117, -26,60,-41,4,127,69,-19,45,5,26,-9,-9,-26,-29,-16,-9,-105,-24,-127,41,32,82,-13,-111,-34,-44,120,77,7,37,73,11,125,-51,127,-3,60,9,-103,19,37,25,-24,5,-22,-45,-10,-42,80,17,-12,40,-6,-3,-74,-9,23,23,127,-88,-2,127,3,-31,-122,-27,-80,98,14,-15,115,25,-18,-58,17,52,-31,-8,-42,-3,-49,8,48,21,-88,36,127,-45,34,-23,127,-10,-116,36,33,17, 
  /* [0][2][][] */ -3,-34,-25,-61,-9,14,38,32,2,9,-24,50,23,-35,-10,13,40,2,-2,25,-18,33,-18,-27,1,-26,7,4,-11,-1,51,-72,-38,60,-27,-26,33,-33,-65,16,9,9,-37,13,11,-72,-10,-1,-6,5,14,-11,9,1,-21,8,-2,48,-52,40,-9,-14,9,17,-9,-9,20,-53,-56,10,-28,-15,-111,-42,-2,16,16,-17,55,16,20,22,-53,17,13,23,-24,13,4,25,18,-6,21,38,-7,-32, -26,-7,-29,25,-46,75,-25,67,6,-7,48,-15,127,-7,-22,-16,-2,-42,-60,28,-27,83,-42,-107,-49,-50,98,72,11,47,52,0,-113,58,-11,-23,-29,-23,-127,-2,45,-13,-15,33,-27,-42,-16,-47,-59,26,64,20,-10,-79,33,54,16,28,72,-54,16,-60,-6,0,20,-24,-127,-55,-9,-30,-61,22,37,-53,-27,-10,-44,20,-59,0,44,34,19,10,6,59,-96,127,12,127,-34,-19,116,-24,46,79, -9,-30,-27,32,9,63,-43,14,9,-5,-2,12,12,-52,-13,-17,-50,-5,5,24,-33,9,-20,5,-5,18,3,47,-3,-3,33,31,21,38,22,-23,-8,-24,-38,8,12,-12,21,6,-74,-27,-10,4,0,-17,-1,-10,-10,9,-15,-1,-2,-50,13,-28,-28,51,16,-30,-11,-2,38,-57,48,4,53,-22,34,-64,-16,22,11,9,-7,18,-36,33,95,-14,-17,53,45,-7,110,13,0,-19,9,-25,-7,-49, 
};
const TfArray<96, float> quant17_scale = { 96, { 0.01115777250379324, 0.0049486663192510605, 0.010410403832793236, 0.0014968026662245393, 0.0066233715042471886, 0.0072433021850883961, 0.015225308947265148, 0.0032900376245379448, 0.0040963995270431042, 0.021479811519384384, 0.0079623432829976082, 0.012937279418110847, 0.0047353659756481647, 0.01773451641201973, 0.0062219472602009773, 0.0040144775994122028, 0.003885938785970211, 0.012409010902047157, 0.0023368855472654104, 0.012761847116053104, 0.0019822109024971724, 0.0076464200392365456, 0.0055310614407062531, 0.0170136708766222, 0.0099962269887328148, 0.010292851366102695, 0.006020102184265852, 0.0074942121282219887, 0.0047192024067044258, 0.0046523264609277248, 0.0051772124134004116, 0.0074449656531214714, 0.0050269300118088722, 0.0047176103107631207, 0.0090795764699578285, 0.0066492077894508839, 0.015987874940037727, 0.0051199323497712612, 0.0024976704735308886, 0.0077148075215518475, 0.0099349645897746086, 0.014474540017545223, 0.017780043184757233, 0.0073832622729241848, 0.0084805544465780258, 0.0025177411735057831, 0.0088116219267249107, 0.0059601012617349625, 0.0032739783637225628, 0.0069923107512295246, 0.0073484163731336594, 0.0066995657980442047, 0.0095066828653216362, 0.011481576599180698, 0.012827850878238678, 0.017907921224832535, 0.016511810943484306, 0.0092381015419960022, 0.0048955040983855724, 0.0039857784286141396, 0.014813012443482876, 0.0066735148429870605, 0.011297727935016155, 0.0056925578974187374, 0.0080327996984124184, 0.010165607556700706, 0.0033464280422776937, 0.00381264160387218, 0.015048868022859097, 0.011510536074638367, 0.009114949032664299, 0.004437359981238842, 0.0049981060437858105, 0.0058353063650429249, 0.0059979129582643509, 0.010196322575211525, 0.021882979199290276, 0.0018957450520247221, 0.012387288734316826, 0.01520121656358242, 0.0065448125824332237, 0.0093498127534985542, 0.0037595247849822044, 0.0045212949626147747, 0.0058760372921824455, 0.0045418087393045425, 0.005795744713395834, 0.0082904528826475143, 0.0088974814862012863, 0.0060636331327259541, 0.0086930515244603157, 0.0049720960669219494, 0.0059674358926713467, 0.018991632387042046, 1.1686117649078369, 0.0036048409529030323, } };
const TfLiteAffineQuantization quant17 = { (TfLiteFloatArray*)&quant17_scale, (TfLiteIntArray*)&g0::quant6_zero, 3 };
const MODEL_SECTION(EI_MODEL_SECTION) ALIGN(16) int32_t tensor_data18[96] = { 12620, 791, 6288, -378, 4327, 4873, 15524, 5197, -1147, 11514, 4809, 1598, 6759, 29702, -221, -1639, 6299, 8036, 1247, -340, -737, 12353, 4145, 5574, 6282, 6542, 3496, 2960, 109, -290, 6419, 8536, 10806, 3123, 6593, -544, 15146, 5463, 569, 3170, 725, 11121, 11219, 3583, 4410, 8585, 9016, 3850, 3127, 2961, 196, -879, 17688, 6206, 4846, 12543, -223, 6149, 2131, 2996, 12029, 4080, 1797, 4215, 6302, 4678, 5139, -657, 12422, 5607, 7345, -1062, -1021, 3377, 728, 2012, 19128, 12034, 13323, -2122, 3079, -5913, -1771, 623, 9226, 5073, 7340, 4742, 8452, 2158, 7944, 3046, 11502, 16672, -10264, 12539, };
const TfArray<96, float> quant18_scale = { 96, { 0.00020802064682357013, 0.0002931110211648047, 0.0002133493690053001, 0.0013676070375367999, 0.00036498016561381519, 0.00018827723397407681, 0.00020468657021410763, 0.00067209056578576565, 0.00044109378359280527, 0.00015788571909070015, 0.00030734285246580839, 0.00051711546257138252, 0.00040812970837578177, 0.00016134465113282204, 0.00032610163907520473, 0.00041425134986639023, 0.00035482450039125979, 0.00028886174550279975, 0.00026188913034275174, 0.00065574992913752794, 0.00040571903809905052, 0.00019497105677146465, 0.00034365541068837047, 0.00013860261242371053, 0.00028279834077693522, 0.00032077112700790167, 0.00040144301601685584, 0.00031038123415783048, 0.00073839491233229637, 0.000406298553571105, 0.00022880664619151503, 0.00022288152831606567, 0.00017547993047628552, 0.00036558858118951321, 0.00025460327742621303, 0.00054796534823253751, 0.00015219196211546659, 0.00047713128151372075, 0.00074692885391414165, 0.00026928848819807172, 0.00067256006877869368, 0.00016754395619500428, 0.00019654694187920541, 0.00020863821555394679, 0.00025891893892548978, 0.00038386514643207192, 0.00029231520602479577, 0.00038190558552742004, 0.00047621759586036205, 0.00031454488635063171, 0.00046121687046252191, 0.0007553727482445538, 0.00015184679068624973, 0.00025882356567308307, 0.00048299835179932415, 0.00014348761760629714, 0.00040533122955821455, 0.00027399419923312962, 0.00037163888919167221, 0.00054339872440323234, 0.00014240546443033963, 0.00032468239078298211, 0.00057349022245034575, 0.0006576229352504015, 0.00017425275291316211, 0.00023455880000256002, 0.00037693508784286678, 0.00040066620567813516, 0.000217980079469271, 0.00020600225252564996, 0.00027119257720187306, 0.00042192422552034259, 0.00039932806976139545, 0.00038201996358111501, 0.00045856076758354902, 0.00061543355695903301, 0.00012542348122224212, 0.000369279645383358, 0.00012465851614251733, 0.00059191364562138915, 0.0003605835372582078, 0.00035718144499696791, 0.00019507146498654038, 0.00054438278311863542, 0.00016348062490578741, 0.00030679703922942281, 0.00023438195057678968, 0.00028412134270183742, 0.00019396436982788146, 0.0007166664581745863, 0.00016696548846084625, 0.00057546456810086966, 0.00017881461826618761, 0.00016759395657572895, 0.00028714063228107989, 0.00026628037448972464, } };
const TfLiteAffineQuantization quant18 = { (TfLiteFloatArray*)&quant18_scale, (TfLiteIntArray*)&g0::quant6_zero, 0 };
const MODEL_SECTION(EI_MODEL_SECTION) ALIGN(16) int8_t tensor_data19[96*1*1*16] = { 
  /* [0][0][][] */ 7,-5,112,127,26,-33,20,-42,64,-36,-24,-14,55,70,-50,-49, 
  /* [1][0][][] */ 23,68,-41,12,46,-54,-42,2,91,19,-53,127,21,-7,98,-81, 
  /* [2][0][][] */ 20,-47,-2,24,-32,55,-60,109,-65,-98,-7,67,-3,-123,85,-127, 
  /* [3][0][][] */ 101,127,-15,33,-121,-15,-68,-25,-1,-26,96,-51,-51,95,-13,-33, 
  /* [4][0][][] */ -27,-40,27,14,-27,70,-37,27,-53,-76,22,10,1,-127,67,-22, 
  /* [5][0][][] */ 125,-32,-36,-10,17,-101,-10,28,-12,25,-127,-3,42,-29,-23,36, 
  /* [6][0][][] */ -127,-79,-85,88,-48,21,-95,3,-88,-108,-76,-26,-4,37,20,10, 
  /* [7][0][][] */ -15,29,-81,58,41,-127,-10,41,11,-9,10,-41,7,28,-32,9, 
  /* [8][0][][] */ 18,-41,4,-19,1,23,-56,-51,-19,13,-68,10,-127,-29,12,28, 
  /* [9][0][][] */ 3,-51,42,103,9,39,4,-57,127,-64,2,-5,5,16,-59,36, 
  /* [10][0][][] */ -52,-3,-19,-4,48,-3,26,10,127,-65,-89,49,65,-97,-66,67, 
  /* [11][0][][] */ 28,-17,-127,-15,50,37,-21,18,-25,-35,9,-8,-3,16,-27,22, 
  /* [12][0][][] */ 109,-106,-23,-39,-21,-127,-91,-57,47,-10,-122,-42,-59,19,77,61, 
  /* [13][0][][] */ 27,-108,45,-70,94,-17,-89,-28,-24,-127,36,-52,45,20,100,7, 
  /* [14][0][][] */ -26,47,-115,-74,49,-127,36,-64,48,38,-2,-95,28,74,3,45, 
  /* [15][0][][] */ 29,27,37,39,48,-68,-40,-47,47,-34,-127,-38,-123,-61,-14,38, 
  /* [16][0][][] */ -127,47,6,-3,4,91,52,53,-26,-5,101,15,-2,-1,30,-40, 
  /* [17][0][][] */ -7,27,-28,-26,-33,3,60,57,-20,127,-22,0,1,41,55,8, 
  /* [18][0][][] */ 11,127,-25,-6,0,-5,57,-46,21,106,-61,72,8,-57,24,-95, 
  /* [19][0][][] */ 6,-59,47,24,-3,37,-36,18,26,-8,-22,-19,-127,42,-20,18, 
  /* [20][0][][] */ 62,-48,-15,-113,-18,41,35,-65,-81,51,-127,-82,40,-10,-6,-1, 
  /* [21][0][][] */ 47,44,127,49,-7,54,67,-20,7,73,-33,-47,49,72,-11,8, 
  /* [22][0][][] */ 52,58,34,53,-48,-15,83,127,-49,21,-5,114,-49,29,81,6, 
  /* [23][0][][] */ -118,32,-94,-50,84,-127,-23,14,-57,-97,9,-33,-127,-36,47,64, 
  /* [24][0][][] */ 40,-83,-15,-67,23,-30,-27,-14,33,-7,61,91,-44,83,127,51, 
  /* [25][0][][] */ -127,-83,-78,-60,3,5,27,-51,-92,-20,-36,-47,8,-17,78,68, 
  /* [26][0][][] */ 8,5,54,0,14,19,-34,54,-55,-92,-6,8,10,-127,23,-47, 
  /* [27][0][][] */ -99,54,-33,22,25,-18,25,20,8,-4,127,-19,-9,0,-17,-13, 
  /* [28][0][][] */ -14,-5,37,35,-4,3,27,104,34,20,-27,-5,-127,-26,-14,37, 
  /* [29][0][][] */ -15,47,76,-52,41,-13,27,-55,-127,87,-74,-30,5,50,-95,3, 
  /* [30][0][][] */ -3,2,-127,-41,8,-75,14,13,-34,-9,-6,-11,-39,-34,32,-2, 
  /* [31][0][][] */ 124,-38,-127,18,50,9,-50,36,-9,-32,-111,-30,29,-46,-78,-21, 
  /* [32][0][][] */ -111,57,0,71,13,73,-2,32,11,-35,127,18,-20,39,22,-33, 
  /* [33][0][][] */ 18,-1,55,-75,-127,4,26,-43,-42,28,26,0,-34,-17,81,63, 
  /* [34][0][][] */ -47,-44,-93,-101,40,-18,-24,-39,-19,-49,12,-127,-21,29,31,26, 
  /* [35][0][][] */ 19,-23,45,50,28,-2,-8,-3,-127,-2,-15,43,-15,103,-21,-54, 
  /* [36][0][][] */ -113,65,-15,-9,-56,18,23,99,-22,1,127,2,35,45,2,-2, 
  /* [37][0][][] */ -34,13,127,-20,-41,-30,20,-44,39,2,-31,-15,42,-49,65,15, 
  /* [38][0][][] */ 24,-23,-10,20,13,-61,-39,25,1,-7,50,-43,127,21,-2,10, 
  /* [39][0][][] */ -77,13,-10,-23,3,-21,54,99,-46,-20,-23,-127,35,53,77,87, 
  /* [40][0][][] */ 78,5,-17,7,2,111,-26,-4,31,-1,5,-9,127,37,-35,-28, 
  /* [41][0][][] */ -29,-41,-51,-127,47,-39,-27,-101,20,-80,14,-73,-4,14,-14,53, 
  /* [42][0][][] */ 18,32,-3,95,-54,3,-71,12,-40,-45,75,-49,-11,127,-22,3, 
  /* [43][0][][] */ 40,99,8,127,23,23,69,-41,-47,114,2,15,22,-39,-2,55, 
  /* [44][0][][] */ -2,-34,-127,3,53,81,-125,84,-17,-53,34,-36,18,-22,-62,0, 
  /* [45][0][][] */ -6,24,4,-127,4,-1,42,-13,-21,15,-7,-39,15,-24,20,-13, 
  /* [46][0][][] */ -23,45,44,19,33,38,-22,7,24,-51,-39,4,-2,127,68,-43, 
  /* [47][0][][] */ 23,-10,25,-28,-41,16,-28,62,8,2,15,13,10,-127,43,19, 
  /* [48][0][][] */ 6,-3,4,-127,-1,-17,-7,-3,13,-20,26,8,14,33,-2,58, 
  /* [49][0][][] */ 8,-2,-9,111,85,30,6,40,-53,17,58,54,-25,15,127,-32, 
  /* [50][0][][] */ -44,-25,54,-44,50,94,-14,-89,44,-77,127,54,47,-22,21,-70, 
  /* [51][0][][] */ 23,87,-14,41,8,1,-39,12,71,4,-23,127,14,43,36,-72, 
  /* [52][0][][] */ -19,73,127,16,1,-37,-6,-21,-40,5,-3,41,7,118,-121,-26, 
  /* [53][0][][] */ -13,4,-44,-127,-63,16,1,-49,-6,37,-1,-15,32,24,82,29, 
  /* [54][0][][] */ 2,-10,-9,-41,13,7,17,11,79,-21,10,-19,-5,127,10,38, 
  /* [55][0][][] */ -79,-31,-69,41,38,-80,6,-127,63,-80,12,-83,-75,-65,17,-67, 
  /* [56][0][][] */ 36,35,31,74,4,-21,13,127,25,-18,-7,-23,70,-4,-45,33, 
  /* [57][0][][] */ 127,-20,124,-48,-79,-38,24,-6,-27,-7,-61,-47,11,-52,36,-24, 
  /* [58][0][][] */ 88,102,-19,32,-127,-62,-11,25,-29,72,82,4,-57,-50,-51,-12, 
  /* [59][0][][] */ 127,2,3,24,-32,-5,-14,-16,4,16,-95,9,24,7,-4,27, 
  /* [60][0][][] */ -127,52,-20,30,28,24,17,5,64,30,61,-20,-55,-15,62,-74, 
  /* [61][0][][] */ -127,37,-4,17,75,-32,23,-6,67,-94,63,-27,90,-29,-64,-68, 
  /* [62][0][][] */ -14,-37,-127,42,64,15,-23,54,12,-56,41,1,-22,4,-38,-2, 
  /* [63][0][][] */ -52,16,127,-8,-35,-41,25,-34,16,-15,-4,33,-6,-23,51,3, 
  /* [64][0][][] */ 42,37,-20,75,62,-2,127,-96,10,126,-23,22,3,-100,30,15, 
  /* [65][0][][] */ -2,11,7,-27,93,-32,-60,-127,-80,-113,16,-44,-29,-50,50,42, 
  /* [66][0][][] */ -127,-4,-2,21,-52,-12,42,-42,-52,-16,-120,58,112,22,75,95, 
  /* [67][0][][] */ 2,-65,-2,123,66,7,-84,27,46,10,-5,14,-64,-50,-127,-84, 
  /* [68][0][][] */ 22,6,0,127,-59,-39,20,-11,-50,16,-2,-2,-10,-99,-57,-34, 
  /* [69][0][][] */ 86,84,39,127,-23,3,65,-31,-1,50,26,88,54,-15,41,39, 
  /* [70][0][][] */ 19,-75,-63,-97,116,-29,72,-20,85,87,72,-34,-7,104,60,127, 
  /* [71][0][][] */ 15,74,43,84,19,-127,-37,88,46,-78,2,3,25,-37,-47,36, 
  /* [72][0][][] */ -127,-33,-39,14,8,27,-23,-11,-43,-35,-78,0,46,22,14,116, 
  /* [73][0][][] */ 4,46,-46,40,39,-5,55,27,127,101,-78,-10,38,109,9,-43, 
  /* [74][0][][] */ 33,-52,5,-38,-41,-7,50,-13,-37,-14,-109,63,-127,5,0,33, 
  /* [75][0][][] */ -29,9,1,123,-56,-35,7,7,-127,10,-15,-2,33,-66,-30,-14, 
  /* [76][0][][] */ -9,-5,15,41,26,33,-19,-117,6,-127,15,51,-16,-21,36,-52, 
  /* [77][0][][] */ 127,-45,32,-12,-16,16,-7,3,86,14,-30,68,30,46,-102,37, 
  /* [78][0][][] */ 21,2,127,-25,-48,-1,-72,32,78,-72,-46,-70,66,126,62,-28, 
  /* [79][0][][] */ -2,9,54,14,44,50,-47,-59,0,-40,55,-11,127,-18,-33,-29, 
  /* [80][0][][] */ -85,-120,-100,94,33,20,40,-18,-127,-7,-84,63,40,-123,14,66, 
  /* [81][0][][] */ 35,-16,-39,27,115,122,-45,5,-32,-127,39,-53,-31,-16,-58,-9, 
  /* [82][0][][] */ 108,125,-19,-12,-127,11,-107,-41,-67,-8,124,-94,-92,69,8,-56, 
  /* [83][0][][] */ 127,65,8,-26,0,-28,-14,4,55,24,74,-24,-52,-42,-12,-81, 
  /* [84][0][][] */ 15,-87,-101,-73,28,-21,37,-127,-70,-68,87,-29,-69,-45,25,-6, 
  /* [85][0][][] */ -51,-16,-41,-61,-38,-48,94,118,-2,125,-28,-101,70,90,127,-21, 
  /* [86][0][][] */ 105,-32,4,32,-28,-24,12,-20,27,7,-127,6,2,21,15,20, 
  /* [87][0][][] */ 4,23,1,-55,-34,33,-11,65,-26,9,45,-30,-19,-127,16,5, 
  /* [88][0][][] */ -6,-89,-17,-55,39,-35,-66,-127,12,-64,15,-70,-35,31,46,9, 
  /* [89][0][][] */ 30,21,-11,-127,19,-30,-16,60,66,-72,25,-14,-16,1,15,22, 
  /* [90][0][][] */ -82,20,-21,104,19,-31,96,-106,64,34,-81,127,93,18,-86,4, 
  /* [91][0][][] */ 30,-4,-45,-12,8,-127,-18,-14,-7,9,-41,8,10,-14,23,9, 
  /* [92][0][][] */ 26,41,120,77,49,-15,-13,10,-65,18,-127,29,35,27,-70,3, 
  /* [93][0][][] */ 93,-18,-27,3,-7,-36,-9,4,28,29,-127,21,-5,39,-17,60, 
  /* [94][0][][] */ 10,-26,66,90,127,-31,-10,71,-1,-18,1,77,-8,125,-33,-101, 
  /* [95][0][][] */ -118,53,11,68,28,58,16,-6,12,8,127,-10,-47,28,0,-35, 
};
const TfArray<96, float> quant19_scale = { 96, { 0.0005359779461286962, 0.00075521855615079403, 0.00054970773635432124, 0.0035237234551459551, 0.0009403937729075551, 0.00048510782653465867, 0.00052738748490810394, 0.0017316825687885284, 0.0011365051614120603, 0.00040680222446098924, 0.00079188769450411201, 0.0013323796447366476, 0.0010515712201595306, 0.00041571439942345023, 0.00084022089140489697, 0.0010673439828678966, 0.00091422710102051497, 0.00074426998617127538, 0.00067477341508492827, 0.001689579919911921, 0.0010453599970787764, 0.00050235487287864089, 0.00088544923346489668, 0.00035711814416572452, 0.00072864728281274438, 0.00082648650277405977, 0.0010343425674363971, 0.00079971627565100789, 0.0019025197252631187, 0.0010468531399965286, 0.00058953434927389026, 0.00057426793500781059, 0.0004521347873378545, 0.00094196142163127661, 0.00065600097877904773, 0.0014118663966655731, 0.00039213191485032439, 0.0012293580221012235, 0.0019245080184191465, 0.00069383828667923808, 0.0017328922403976321, 0.00043168728007003665, 0.00050641526468098164, 0.00053756916895508766, 0.00066712056286633015, 0.0009890521178022027, 0.00075316807487979531, 0.00098400318529456854, 0.0012270038714632392, 0.00081044418038800359, 0.0011883535189554095, 0.0019462641794234514, 0.00039124255999922752, 0.00066687481012195349, 0.0012444749008864164, 0.00036970464861951768, 0.0010443608043715358, 0.00070596282603219151, 0.00095755036454647779, 0.0014001000672578812, 0.00036691641435027122, 0.00083656411152333021, 0.0014776327880099416, 0.0016944058006629348, 0.00044897288898937404, 0.00060435512568801641, 0.00097119633574038744, 0.0010323410388082266, 0.00056163902627304196, 0.00053077744087204337, 0.00069874431937932968, 0.0010871136328205466, 0.0010288932826370001, 0.00098429783247411251, 0.0011815099278464913, 0.0015857022954151034, 0.00032316127908416092, 0.00095147168030962348, 0.00032119030947797, 0.0015251018339768052, 0.00092906563077121973, 0.00092029990628361702, 0.00050261360593140125, 0.0014026355929672718, 0.00042121787555515766, 0.00079048139741644263, 0.00060389947611838579, 0.00073205603985115886, 0.00049976108130067587, 0.0018465351313352585, 0.0004301968147046864, 0.0014827197883278131, 0.00046072684926912189, 0.00043181609362363815, 0.00073983543552458286, 0.00068608770379796624, } };
const TfLiteAffineQuantization quant19 = { (TfLiteFloatArray*)&quant19_scale, (TfLiteIntArray*)&g0::quant6_zero, 0 };
const MODEL_SECTION(EI_MODEL_SECTION) ALIGN(16) int32_t tensor_data20[16] = { -36673, 1292, -1303, -11982, -3330, -3151, -9894, -40301, 1965, 24794, 37449, -12322, -5542, -22051, 30651, -38316, };
const TfArray<16, float> quant20_scale = { 16, { 0.00074734032386913896, 0.00070378003874793649, 0.00093209755141288042, 0.00091940420679748058, 0.00072740617906674743, 0.0011487301671877503, 0.00092341232812032104, 0.00053503748495131731, 0.00068636017385870218, 0.00053802179172635078, 0.00075571855995804071, 0.00053505366668105125, 0.0010347672505304217, 0.0012265642872080207, 0.00057433382607996464, 0.00045570099609903991, } };
const TfLiteAffineQuantization quant20 = { (TfLiteFloatArray*)&quant20_scale, (TfLiteIntArray*)&g0::quant8_zero, 0 };
const MODEL_SECTION(EI_MODEL_SECTION) ALIGN(16) int8_t tensor_data21[16*1*1*48] = { 
  /* [0][0][][] */ -34,-14,-30,13,10,-6,-14,107,-50,10,20,0,28,-27,-6,15,21,-2,-14,19,64,1,17,117,-17,95,17,-11,23,-6,40,-32,-18,41,17,-53,11,31,11,-20,-102,-18,18,41,19,34,-127,-48, 
  /* [1][0][][] */ -33,-6,14,6,-32,12,3,51,-55,-45,6,-50,-25,3,6,0,-18,108,-10,8,5,9,-25,-24,27,-39,27,23,-36,-90,-28,22,-33,-5,37,3,4,-37,4,21,-21,-28,127,10,20,6,28,5, 
  /* [2][0][][] */ -28,-1,-7,-34,-8,-63,4,-17,-4,3,15,25,17,24,-10,15,0,-21,-22,-10,-4,-13,4,-127,-19,83,-14,6,-4,-19,0,2,-8,53,10,1,21,6,32,-2,-37,2,-17,-13,-8,-7,14,9, 
  /* [3][0][][] */ -11,53,4,-29,-5,3,2,1,-20,-4,11,38,-127,9,-10,-2,2,14,-17,-2,-29,0,7,18,-4,-10,-5,22,-12,15,8,11,2,2,13,23,-2,24,47,9,13,4,28,-32,18,-8,4,24, 
  /* [4][0][][] */ 32,-40,-8,11,20,29,25,-19,-32,16,-18,-17,-3,11,8,8,14,-16,-87,2,-9,11,13,78,1,-26,-3,57,12,-76,19,10,18,-44,29,-127,14,33,6,-3,-20,29,-5,-26,-12,-18,4,0, 
  /* [5][0][][] */ 32,1,-8,44,8,-1,6,19,-6,-6,35,0,11,55,0,8,-22,18,23,2,8,2,1,-25,0,-47,4,-25,-7,-12,1,-1,48,-127,0,30,-15,-9,12,8,-82,53,15,-1,3,-1,-85,1, 
  /* [6][0][][] */ 32,1,4,0,-13,-2,5,-16,-2,2,10,6,-21,32,4,6,-10,-16,127,9,6,4,14,-42,-4,4,27,-14,-16,-6,-4,10,-6,-8,36,-38,8,-40,68,31,-7,-15,4,8,-1,-5,4,-7, 
  /* [7][0][][] */ -48,0,5,37,-22,77,-10,51,-4,41,14,127,80,-2,-16,12,-12,-16,-6,-14,-38,5,-22,72,-9,-36,-60,-34,-13,-3,-6,10,-2,16,-29,9,5,-61,100,7,29,14,-50,-66,18,-7,7,0, 
  /* [8][0][][] */ -40,-22,1,4,-24,2,-15,29,-2,-77,-4,34,43,6,27,7,-17,57,-24,7,-49,19,-3,-7,0,-1,14,32,-10,114,-13,24,-8,3,-12,-112,-100,69,30,19,15,-5,127,-18,14,24,13,23, 
  /* [9][0][][] */ -20,2,3,28,18,-31,2,-3,63,-45,14,60,-59,8,32,13,-3,29,-42,-31,57,6,-11,-22,-4,14,55,-23,7,9,13,-4,-16,18,67,-96,-7,-127,-103,42,-26,24,59,11,14,7,-21,-40, 
  /* [10][0][][] */ -20,-4,-35,-127,60,92,13,-17,1,41,14,22,57,-51,-50,26,36,-34,57,-37,33,-13,41,55,-43,-119,6,-41,43,25,61,-40,-31,-76,22,0,18,-52,2,-44,-40,-74,-17,13,13,13,29,-37, 
  /* [11][0][][] */ -10,79,8,71,44,-62,-68,-10,14,42,-8,5,-10,55,-7,-91,13,46,9,-10,-57,-109,-4,-4,16,-40,26,-25,38,-32,7,-108,45,-18,-34,-100,94,21,9,-119,-10,61,127,-70,-7,-60,35,46, 
  /* [12][0][][] */ 113,3,-3,11,-6,18,13,91,11,-10,-63,-32,-1,24,-13,1,-2,2,-3,-3,2,11,17,14,-3,28,-6,10,-6,15,-8,1,5,-59,-8,10,-7,-18,-23,7,-14,-72,6,-127,-51,2,58,-2, 
  /* [13][0][][] */ 12,8,-2,2,1,-8,-1,1,0,15,-3,19,-5,10,7,1,2,4,8,8,11,-11,16,-4,-1,3,15,127,13,0,11,-5,4,-3,-42,23,11,-5,6,-13,-14,-8,6,1,6,-1,-9,-10, 
  /* [14][0][][] */ 62,-18,43,-63,57,42,42,-96,-48,-54,-16,121,-70,-27,43,4,47,31,-34,71,34,25,62,-17,41,47,-47,-106,55,-32,64,39,21,76,-127,-42,-43,53,100,33,-28,14,50,-2,-4,-4,32,-41, 
  /* [15][0][][] */ -21,-90,-97,-28,76,31,76,-53,11,19,-30,-18,90,26,-113,65,46,49,94,-65,-94,-29,57,-30,-106,45,36,69,85,52,60,-39,46,64,104,127,-36,-126,-23,-32,81,53,110,-49,-27,-34,-18,35, 
};
const TfArray<4, int> tensor_dimension21 = { 4, { 16,1,1,48 } };
const TfArray<16, float> quant21_scale = { 16, { 0.031761962920427322, 0.029910650104284286, 0.039614144712686539, 0.039074677973985672, 0.030914761126041412, 0.048821032047271729, 0.03924502432346344, 0.022739093750715256, 0.029170306399464607, 0.02286592498421669, 0.032118037343025208, 0.022739779204130173, 0.043977607041597366, 0.052128981798887253, 0.024409186094999313, 0.019367292523384094, } };
const TfLiteAffineQuantization quant21 = { (TfLiteFloatArray*)&quant21_scale, (TfLiteIntArray*)&g0::quant8_zero, 0 };
const MODEL_SECTION(EI_MODEL_SECTION) ALIGN(16) int32_t tensor_data22[48] = { 8983, 36505, -1052, 60049, 4108, 126235, -2863, 75024, 3603, 36063, 23841, 348, 8258, 33834, 5, -3027, -890, 4719, 3711, -2479, 2550, -2692, 994, -25453, -3971, 45517, 141087, 105416, 2904, 5260, -3308, 2305, 24112, 1512, 34937, 96, 31025, 1457, 63616, 2998, 1649, 81389, 261, 6776, 41881, 333, 1599, 51183, };
const TfArray<1, int> tensor_dimension22 = { 1, { 48 } };
const TfArray<48, float> quant22_scale = { 48, { 5.9112913731951267e-05, 3.6958557757316157e-05, 0.00015638841432519257, 4.2280091292923316e-05, 0.00019484081713017076, 6.1819104303140193e-05, 0.00014101783744990826, 7.3329007136635482e-05, 7.4162329838145524e-05, 3.6921348510077223e-05, 4.4349457311909646e-05, 9.4369526777882129e-05, 3.669059879030101e-05, 3.6711087886942551e-05, 0.00016023807984311134, 0.00017480998940300196, 0.00016790875815786421, 6.0796293837483972e-05, 9.58846794674173e-05, 0.00013575513730756938, 9.1145600890740752e-05, 0.00020473350014071912, 7.9176425060722977e-05, 0.00015313210315071046, 9.2990114353597164e-05, 9.3704860773868859e-05, 2.9989365430083126e-05, 6.7156979639548808e-05, 0.00014625037147197872, 0.00010079301137011498, 0.00011332373105688021, 0.00014495891809929162, 4.1062641685130075e-05, 0.00013199675595387816, 2.925209810200613e-05, 5.3047493565827608e-05, 0.00018991006072610617, 8.3605358668137342e-05, 8.6507003288716078e-05, 0.00011326942330924794, 0.00010562514944467694, 6.9953101046849042e-05, 0.00010263520380249247, 8.4357554442249238e-05, 2.8427151846699417e-05, 0.00016464818327222019, 0.00010442245547892526, 2.712407149374485e-05, } };
const TfArray<48, int> quant22_zero = { 48, { 0,0,0,0,0,0,0,0,0,0,0,0,0,0,0,0,0,0,0,0,0,0,0,0,0,0,0,0,0,0,0,0,0,0,0,0,0,0,0,0,0,0,0,0,0,0,0,0 } };
const TfLiteAffineQuantization quant22 = { (TfLiteFloatArray*)&quant22_scale, (TfLiteIntArray*)&quant22_zero, 0 };
const MODEL_SECTION(EI_MODEL_SECTION) ALIGN(16) int8_t tensor_data23[1*3*3*48] = { 
  /* [0][0][][] */ 72,-95,100,73,52,-35,104,-68,59,-91,-80,47,51,-46,-70,-92,100,81,50,74,69,-75,-82,52,-34,-43,-69,-67,-65,62,-61,-116,-16,42,70,67,-69,58,-50,-23,50,-74,62,65,-99,9,75,-37, 84,-98,127,90,-79,-71,-58,-86,97,-104,-63,71,78,-113,-94,91,-41,103,85,127,83,-119,50,72,-54,-78,-73,-83,55,78,-28,-127,-85,78,84,85,-85,90,-84,-15,74,-92,87,94,-77,-127,92,-113, 33,-51,72,39,20,-42,-46,-41,45,-30,7,37,32,-86,-54,-1,-57,43,38,68,32,-58,29,28,-30,-49,-45,-25,34,33,90,-89,-89,44,40,35,-30,44,-41,-8,41,-40,38,47,-5,-9,36,-81, 
  /* [0][1][][] */ 88,-117,-44,95,56,-84,127,-92,89,-119,-75,83,85,-119,-14,-127,127,112,74,-38,83,108,-127,74,72,-78,-94,-101,-127,89,-70,-12,-85,70,107,98,-90,82,-81,89,83,-96,90,97,-96,105,92,-94, 127,-127,-67,127,-127,-127,-89,-127,127,-127,-127,127,127,-127,-23,99,-62,127,127,-47,127,127,66,127,127,-127,-127,-127,51,127,-26,14,-127,127,127,127,-127,127,-127,127,127,-127,127,127,-127,-13,127,-127, 65,-75,-34,65,40,-62,-46,-68,54,-44,-60,59,51,-59,-18,14,-67,56,60,-28,56,64,51,66,64,-68,-68,-48,40,57,127,14,-63,70,51,48,-49,61,-64,58,61,-56,51,66,-62,-66,60,-57, 
  /* [0][2][][] */ 43,-57,-45,52,28,-54,61,-43,41,-82,-6,44,60,-77,79,-80,72,51,34,-32,24,-11,-79,30,-28,-49,-53,-52,-74,33,-42,84,-79,39,52,47,-29,37,-43,-90,48,-50,43,48,-21,16,38,-77, 71,-75,-48,82,-56,-63,-74,-72,51,-82,-66,62,77,-52,127,34,-46,56,61,-46,55,-19,39,71,-54,-68,-82,-64,32,61,-22,113,-58,64,61,62,-52,62,-65,-108,71,-67,65,65,-85,51,63,-59, 40,-42,-27,50,30,-18,-21,-38,17,-35,-50,30,36,6,67,27,-35,22,29,-31,28,-1,36,44,-28,-33,-54,-26,36,34,61,64,-1,35,18,25,-22,29,-31,-55,31,-33,30,31,-64,10,31,-5, 
};
const TfArray<4, int> tensor_dimension23 = { 4, { 1,3,3,48 } };
